tree
version=v3
num_class=1
num_tree_per_iteration=1
label_index=0
max_feature_idx=33
objective=regression
feature_names=total_loan year_of_loan interest monthly_payment class employer_type industry work_year house_exist censor_status use post_code region debt_loan_ratio del_in_18month scoring_low scoring_high pub_dero_bankrup recircle_b recircle_u initial_list_status title policy_code f0 f1 f2 f3 f4 early_return early_return_amount early_return_amount_3mon issue_date_y issue_date_m issue_date_diff
feature_infos=[818.18181819999995:47272.727269999996] [3:5] [4.7789999999999999:33.978999999999999] [19.870000000000001:1714.54] [0:6] [0:5] [0:13] [0:10] [0:5] [0:2] [0:13] [0:935] [0:50] [0:999] [0:30] [540:910.90909090000002] [585:1104.5454550000002] [0:12] [0:1696796] [0:892.29999999999995] [0:1] [0:61680] none [0:44] [0:2] [0:131] [1:107] [0:66] [0:29] [0:17222] [0:4821.8999999999996] [2007:2018] [1:12] [30:4201]
tree_sizes=3004 3115 3115 3124 3115 3127 3105 3113 3118 3132 3150 3119 3122 3130 3120 3157 3114 3123 3116 3126 3154 3129 3137 3102 3118 3138 3134 3128 3107 3112 3126 3109 3094 3110 3140 3101 3120 3135 3132 3104 3130 3131 3133 3117 3104 3104 3132 3119 3086 3118 3104 3113 3120 3107 3136 3094 3101 3084 3098 3105 3155 3111 3115 3115 3111 3105 3116 3134 3110 3115 3113 3067 3090 3070 3119 3105 3078 3157 3102 3107 3087 3115 3068 3085 3055 3093 3051 3099 3037 3019 3127 2916 3015 2963 3001 3051 3013 2994 2969 2949 3061 2940 2943 3045 3122 2998 2907 3039 3071 3033 2891 3025 3033 2992 2905 2810 2933 3086 2887 2899 2876 3073 3008 3027 2915 2883 2825 2896 2933 2852 3130 2985 2838 3001 2923 2930 2985 2870 3108 2997 3036 3029 3008 2860 2865 3012 3010 3042 2896 2909 2834 2906 2842 2882 2863 2993 3002 3017 2905 2816 2967 2986 2824 2881 2933 3014 2846 2895 2934 2933 2865 3038 2901 2942 2878 2851 2819 2885 3010 2883 2873 2907 2939 2874 2895 2819 2868 2826 2899 2886 2941 2974 2867 3061 2990 2855 2888 2850 2901 2881 2838 3050 2892 2952 2980 2953 2921 2828 2924 2872 2791 2886 2922 3017 2855 2861 2856 2911 2889 2924 2958 3046 2944 2852 2988 2861 2845 2818 2863 2864 2892 2903 2876 2937 2884 2962 2946 2965 3016 2869 2895 2866 2984 2846 2852 2892 2887 2840 2884 2862 2970 2892 2780 2918 2899 2961 2973 2822 2877 2927 2865 2848 2885 2888 2967 2871 2838 2843 2911 2943 2832 2884 2831 2919 2916 2892 2887 2847 2864 2828 2825 2977 2901 3039 2952 2846 2945 2848 2878 2891 2962 2918 2932 2840 2903 2853 2952 2940 2933 2849 2871 2894 2845 2852 2853 2928 2954 2958 2901 2979 2828 2857 2883 2982 2856 2921 2874 2880 2920 2822 2954 2894 2924 2881 2852 2812 2952 2871 2896 2874 2867 2926 2936 2892 2908 2887 2928 2937 2941 2891 2880 2881 2960 2870 2902 2859 2898 2841 2851 2924 2912 2898 2875 2941 2891 2886 2937 2902 2897 2882 2859 2973 2834 2889 2952 2870 2878 2875 2884 2844 2903 2862 2868 2822 2888 2928 2926 2870 2826 2882 2853 2862 2925 2943 2949 2857 2942 2925 2901 2877 2906 2874 2890 2826 2869 2933 2926 2882 2938 2842

Tree=0
num_leaves=31
num_cat=0
split_feature=4 5 29 4 5 5 29 5 29 4 1 4 1 33 33 5 33 29 1 8 2 4 8 29 5 1 33 5 8 8
split_gain=5820.08 4790.84 2132.83 967.7 926.747 895.009 567.083 576.697 406.972 429.126 373.587 307.827 166.006 154.673 137 125.243 122.999 112.575 104.399 97.0763 93.0192 87.6925 84.6532 78.2955 83.3643 65.6319 74.2317 60.7213 52.1459 50.6809
threshold=1.5000000000000002 1.0000000180025095e-35 1.0000000180025095e-35 2.5000000000000004 1.0000000180025095e-35 1.5000000000000002 1.0000000180025095e-35 3.5000000000000004 1.0000000180025095e-35 1.0000000180025095e-35 4.0000000000000009 2.5000000000000004 4.0000000000000009 3090.0000000000005 2511.0000000000005 1.5000000000000002 3211.5000000000005 1.0000000180025095e-35 4.0000000000000009 1.0000000180025095e-35 17.785000000000004 1.0000000180025095e-35 1.0000000180025095e-35 1.0000000180025095e-35 3.5000000000000004 4.0000000000000009 3181.5000000000005 4.5000000000000009 1.0000000180025095e-35 1.0000000180025095e-35
decision_type=2 2 2 2 2 2 2 2 2 2 2 2 2 2 2 2 2 2 2 2 2 2 2 2 2 2 2 2 2 2
left_child=4 2 3 12 8 17 7 11 9 -1 13 -7 16 -5 -12 -6 -2 20 -13 -16 -3 -17 -14 24 -23 26 -11 -9 -20 -18
right_child=1 5 -4 10 15 6 -8 27 -10 25 14 18 22 -15 19 21 29 -19 28 -21 -22 23 -24 -25 -26 -27 -28 -29 -30 -31
leaf_value=0.18993626370140557 0.20858089899286875 0.18895662154879378 0.17949272688321311 0.21711058673889733 0.18281640307885133 0.20374714703875563 0.17942879648889073 0.19691860323942098 0.17945169986347009 0.1982776825913804 0.2250186651356389 0.21119327504024446 0.21642639865556637 0.22916884544766317 0.2332143223365071 0.18405039373842186 0.21213099373654856 0.17946315039476443 0.21691300212523523 0.24374822413890387 0.19611327238820164 0.1937178021983767 0.22797433810550041 0.17941308707139092 0.18558258737277852 0.20871350700273728 0.2048352251222415 0.18769573433485856 0.22786767052982412 0.22174254834142573
leaf_weight=49893 43277 62690 12923 24215 98602 39625 9403 19105 13997 50850 9849 17690 15717 18972 17878 39123 9476 9301 9181 17132 25569 40351 10649 6260 18313 11148 26135 11397 8250 13029
leaf_count=49893 43277 62690 12923 24215 98602 39625 9403 19105 13997 50850 9849 17690 15717 18972 17878 39123 9476 9301 9181 17132 25569 40351 10649 6260 18313 11148 26135 11397 8250 13029
internal_value=0.199153 0.207339 0.218735 0.22155 0.189798 0.196967 0.202958 0.20506 0.195699 0.197347 0.229047 0.209789 0.214386 0.222408 0.235438 0.18537 0.211699 0.189927 0.216605 0.238369 0.19103 0.18779 0.221091 0.190044 0.191178 0.201542 0.200504 0.193473 0.222098 0.217695
internal_weight=0 405328 193117 180194 354672 212211 114651 105248 152023 138026 88046 74746 92148 43187 44859 202649 65782 97560 35121 35010 88259 104047 26366 64924 58664 88133 76985 30502 17431 22505
internal_count=760000 405328 193117 180194 354672 212211 114651 105248 152023 138026 88046 74746 92148 43187 44859 202649 65782 97560 35121 35010 88259 104047 26366 64924 58664 88133 76985 30502 17431 22505
is_linear=0
shrinkage=1


Tree=1
num_leaves=31
num_cat=0
split_feature=4 5 29 4 5 5 29 5 29 4 1 4 33 8 33 5 29 4 2 4 8 29 5 33 1 33 4 33 5 4
split_gain=4714.27 3880.58 1727.59 814.176 750.665 724.957 459.337 467.125 329.647 347.592 291.052 260.334 175.211 126.073 107.227 101.447 91.1858 75.9535 75.3456 71.0309 70.7933 63.4193 67.5251 57.3885 53.1618 60.1277 52.8242 50.5463 49.1843 48.9935
threshold=1.5000000000000002 1.0000000180025095e-35 1.0000000180025095e-35 3.5000000000000004 1.0000000180025095e-35 1.5000000000000002 1.0000000180025095e-35 3.5000000000000004 1.0000000180025095e-35 1.0000000180025095e-35 4.0000000000000009 3.5000000000000004 3151.5000000000005 1.0000000180025095e-35 2664.0000000000005 1.5000000000000002 1.0000000180025095e-35 2.5000000000000004 17.785000000000004 1.0000000180025095e-35 1.0000000180025095e-35 1.0000000180025095e-35 3.5000000000000004 2480.5000000000005 4.0000000000000009 3181.5000000000005 2.5000000000000004 2633.5000000000005 4.5000000000000009 4.5000000000000009
decision_type=2 2 2 2 2 2 2 2 2 2 2 2 2 2 2 2 2 2 2 2 2 2 2 2 2 2 2 2 2 2
left_child=4 2 3 10 8 16 7 11 9 -1 12 17 26 -12 -5 -6 18 -7 -3 -17 -14 22 -21 -15 25 -11 -2 -13 -9 -16
right_child=1 5 -4 14 15 6 -8 28 -10 24 13 27 20 23 29 19 -18 -19 -20 21 -22 -23 -24 -25 -26 -27 -28 -29 -30 -31
leaf_value=-0.0082947310577023235 0.0080603169866537809 -0.0091764083614492373 -0.0176939140255492 0.025012701876381094 -0.014702605151054244 0.0041350638515941732 -0.017751451829329686 -0.0020106253970889202 -0.017730838760032036 -0.00078745412310785013 0.018781758556208325 0.012504728605815927 0.013713090026252052 0.017369923011715482 0.034004208104069213 -0.013592013950786431 -0.017720532637746752 0.011591261451058318 -0.002735423186107042 -0.004891346131602213 0.022366217458280664 -0.017765589171705155 -0.012213039970626435 0.031786426089714062 0.0086047881701576869 0.0051143347809345296 0.014480584539086266 0.025564859777307242 -0.010311207928615276 0.043408907463550271
leaf_weight=49893 39072 62690 12923 10748 98602 39625 9403 19105 13997 50850 26437 4199 16010 3322 18105 39123 9301 20851 25569 40351 23091 6260 18313 16358 11148 26135 19070 10071 11397 7981
leaf_count=49893 39072 62690 12923 10748 98602 39625 9403 19105 13997 50850 26437 4199 16010 3322 18105 39123 9301 20851 25569 40351 23091 6260 18313 16358 11148 26135 19070 10071 11397 7981
internal_value=0 0.00736734 0.0176243 0.0201572 -0.00841958 -0.00196674 0.00342488 0.0053168 -0.00310795 -0.00162507 0.01675 0.00957258 0.0136471 0.0232929 0.0334183 -0.0124042 -0.00830289 0.00670582 -0.00731043 -0.0102262 0.0188232 -0.0081979 -0.00717694 0.0293529 0.0021507 0.0012161 0.0101661 0.0217219 -0.00511212 0.0368816
internal_weight=0 405328 193117 180194 354672 212211 114651 105248 152023 138026 143360 74746 97243 46117 36834 202649 97560 60476 88259 104047 39101 64924 58664 19680 88133 76985 58142 14270 30502 26086
internal_count=760000 405328 193117 180194 354672 212211 114651 105248 152023 138026 143360 74746 97243 46117 36834 202649 97560 60476 88259 104047 39101 64924 58664 19680 88133 76985 58142 14270 30502 26086
is_linear=0
shrinkage=0.1


Tree=2
num_leaves=31
num_cat=0
split_feature=4 5 29 2 5 5 29 5 29 4 33 4 1 1 33 5 29 1 1 1 33 8 8 5 29 33 8 4 13 3
split_gain=3818.56 3143.27 1399.35 675 608.039 587.215 372.063 378.371 267.014 281.549 218.261 210.87 156.523 133.133 83.3179 82.1718 73.8605 70.6362 67.747 65.7965 65.4043 65.1363 60.3319 58.9965 58.6294 57.6601 55.953 54.4574 49.66 48.9603
threshold=1.5000000000000002 1.0000000180025095e-35 1.0000000180025095e-35 16.506000000000004 1.0000000180025095e-35 1.5000000000000002 1.0000000180025095e-35 3.5000000000000004 1.0000000180025095e-35 1.0000000180025095e-35 2541.5000000000005 3.5000000000000004 4.0000000000000009 4.0000000000000009 2633.5000000000005 1.5000000000000002 1.0000000180025095e-35 4.0000000000000009 4.0000000000000009 4.0000000000000009 4033.0000000000005 1.0000000180025095e-35 1.0000000180025095e-35 3.5000000000000004 1.0000000180025095e-35 3181.5000000000005 1.0000000180025095e-35 1.0000000180025095e-35 21.215000000000003 174.84000000000003
decision_type=2 2 2 2 2 2 2 2 2 2 2 2 2 2 2 2 2 2 2 2 2 2 2 2 2 2 2 2 10 2
left_child=4 2 3 13 8 16 7 11 9 -1 19 17 29 14 -2 -6 18 25 -3 -5 22 -15 -14 24 27 -7 -16 -17 -11 -12
right_child=1 5 -4 10 15 6 -8 -9 -10 28 12 -13 20 21 26 23 -18 -19 -20 -21 -22 -23 -24 -25 -26 -27 -28 -29 -30 -31
leaf_value=-0.0074652576009948575 0.0040852537094366722 -0.0086467697855290414 -0.01592452333091186 0.0099662577049381956 -0.013232344988955608 0.00088879957295545653 -0.015976306298629003 -0.0046009059701561652 -0.015957754063118251 0.00032156507189833055 0.013339382558101749 0.019549681466299918 0.029130889760366853 0.014411379069244107 0.0083807506686881632 -0.010439876677902415 -0.015948479101358212 0.011100227660548738 -0.0028665159202699792 0.021344951060134329 -0.006300961350995388 0.024000178783681728 0.038018446061110413 -0.012683564733630782 -0.016406517691082426 0.0086141693373805953 0.014882046188185128 -0.0044022112608410897 0.0054266110328910983 0.024549275348880156
leaf_weight=49893 16366 56692 12923 9441 98602 26277 9403 30502 13997 60268 4660 14270 15449 17199 22432 23721 9301 18920 31567 11006 418 12046 15107 33180 6795 15279 32299 40351 27865 23771
leaf_count=49893 16366 56692 12923 9441 98602 26277 9403 30502 13997 60268 4660 14270 15449 17199 22432 23721 9301 18920 31567 11006 418 12046 15107 33180 6795 15279 32299 40351 27865 23771
internal_value=0 0.0066306 0.0158619 0.0181415 -0.00757762 -0.00177007 0.00308239 0.00478512 -0.00279716 -0.00146256 0.0250024 0.00861533 0.0280696 0.0126816 0.0103455 -0.0111638 -0.0074726 0.00603524 -0.00657939 0.0160911 0.0329875 0.018361 0.0335249 -0.00920354 -0.00757419 0.00372921 0.0122174 -0.0066375 0.00193563 0.0227119
internal_weight=0 405328 193117 180194 354672 212211 114651 105248 152023 138026 79852 74746 59405 100342 71097 202649 97560 60476 88259 20447 30974 29245 30556 104047 70867 41556 54731 64072 88133 28431
internal_count=760000 405328 193117 180194 354672 212211 114651 105248 152023 138026 79852 74746 59405 100342 71097 202649 97560 60476 88259 20447 30974 29245 30556 104047 70867 41556 54731 64072 88133 28431
is_linear=0
shrinkage=0.1


Tree=3
num_leaves=31
num_cat=0
split_feature=2 5 29 5 2 5 4 29 29 5 33 5 33 33 2 33 4 2 1 5 29 33 29 1 29 1 8 8 1 8
split_gain=3101.24 2095.93 944.705 895.466 473.806 413.922 392.604 327.56 266.246 251.34 208.253 123.626 123.106 117.154 111.728 90.963 87.5866 86.3384 80.8481 76.3087 75.819 72.375 72.026 58.2488 55.1695 50.1052 46.8591 44.6597 44.5431 44.4094
threshold=13.985000000000001 1.0000000180025095e-35 1.0000000180025095e-35 1.0000000180025095e-35 10.415000000000001 1.5000000000000002 3.5000000000000004 1.0000000180025095e-35 1.0000000180025095e-35 3.5000000000000004 2664.0000000000005 1.5000000000000002 2541.5000000000005 2602.5000000000005 10.415000000000001 4033.0000000000005 3.5000000000000004 7.8850000000000007 4.0000000000000009 3.5000000000000004 1.0000000180025095e-35 2664.0000000000005 1.0000000180025095e-35 4.0000000000000009 1.0000000180025095e-35 4.0000000000000009 1.0000000180025095e-35 1.0000000180025095e-35 4.0000000000000009 1.0000000180025095e-35
decision_type=2 2 2 2 2 2 2 2 2 2 2 2 2 2 2 2 2 2 2 2 2 2 2 2 2 2 2 2 2 2
left_child=3 2 6 4 17 24 10 13 9 12 25 -5 -7 -6 -13 18 -14 -1 29 22 -19 -8 -16 27 28 -2 -20 -15 -3 -12
right_child=1 5 -4 11 7 8 21 -9 -10 -11 15 14 16 23 19 -17 -18 20 26 -21 -22 -23 -24 -25 -26 -27 -28 -29 -30 -31
leaf_value=-0.0090561494154990149 0.0059075726252187273 -0.007069779511594535 -0.014330262256132098 -0.011360546275418999 -7.9712485912777014e-05 0.0021806339042275097 0.020466447949675903 -0.014381637756455479 -0.014439396709138203 -0.0027731533209654009 0.012444348850723206 -0.0099546001489248456 0.0098093259284462754 0.0035036054453434131 -0.00070782387804897056 -0.0082239674666944231 0.02027617347648699 -0.0016612585506482367 0.019628201346486161 -0.0091594753330525788 -0.014345586545431622 0.030220988211787217 -0.014401508353249506 0.013827162394510695 -0.014410330409799818 0.013957825523119484 0.028635906631676745 0.0090328859639768524 -0.0017322213911318233 0.019061172653710882
leaf_weight=37725 21181 38504 9337 124597 23518 15596 10739 8522 6823 22517 16852 64781 29623 25559 43083 1248 10950 50163 12571 21108 5201 26075 4217 14019 6737 12176 10683 34092 26324 25479
leaf_count=37725 21181 38504 9337 124597 23518 15596 10739 8522 6823 22517 16852 64781 29623 25559 43083 1248 10950 50163 12571 21108 5201 26075 4217 14019 6737 12176 10683 34092 26324 25479
internal_value=0 0.00783615 0.0164469 -0.00520737 -0.0001644 -0.000186182 0.0185444 0.00441686 0.00451007 0.00615321 0.0152994 -0.0090964 0.00973161 0.00606521 -0.00697831 0.0185204 0.0126342 -0.00536678 0.0190293 -0.00415981 -0.00285285 0.0273755 -0.00192868 0.00802689 -0.00579747 0.00884608 0.0237664 0.00666372 -0.00490242 0.016427
internal_weight=0 303415 146341 456585 198799 157074 137004 105710 85509 78686 100190 257786 56169 97188 133189 66833 40573 93089 65585 68408 55364 36814 47300 73670 71565 33357 23254 59651 64828 42331
internal_count=760000 303415 146341 456585 198799 157074 137004 105710 85509 78686 100190 257786 56169 97188 133189 66833 40573 93089 65585 68408 55364 36814 47300 73670 71565 33357 23254 59651 64828 42331
is_linear=0
shrinkage=0.1


Tree=4
num_leaves=31
num_cat=0
split_feature=4 5 29 2 5 5 29 5 29 2 2 1 33 33 33 1 33 13 29 4 30 4 31 5 15 4 2 8 23 1
split_gain=2550.12 2059.59 921.091 464.795 398.965 384.299 246.964 249.589 178.215 184.02 155.551 123.454 102.001 81.3445 73.2963 66.0114 64.5459 62.5979 54.3105 57.6707 50.517 53.9101 48.2973 48.1223 43.9036 43.6231 42.8485 37.1141 36.2817 35.9526
threshold=1.5000000000000002 1.0000000180025095e-35 1.0000000180025095e-35 17.785000000000004 1.0000000180025095e-35 1.5000000000000002 1.0000000180025095e-35 3.5000000000000004 1.0000000180025095e-35 8.386000000000001 16.975000000000005 4.0000000000000009 2511.0000000000005 4033.0000000000005 2816.0000000000005 4.0000000000000009 2633.5000000000005 18.850454545000002 1.0000000180025095e-35 1.0000000180025095e-35 1.0000000180025095e-35 3.5000000000000004 2014.5000000000002 1.5000000000000002 691.13636365000013 3.5000000000000004 14.340000000000002 1.0000000180025095e-35 5.5000000000000009 4.0000000000000009
decision_type=2 2 2 2 2 2 2 2 2 2 2 2 2 2 2 2 2 10 2 2 2 2 2 2 2 2 2 2 10 2
left_child=4 2 3 11 8 20 7 10 9 -1 29 14 -5 15 -2 -14 -12 -13 19 -6 21 -3 -11 -21 -19 -9 -16 -17 -24 -7
right_child=1 5 -4 12 18 6 -8 25 -10 22 16 17 13 -15 26 27 -18 24 -20 23 -22 -23 28 -25 -26 -27 -28 -29 -30 -31
leaf_value=-0.0060353943007856797 0.0049991404892163124 -0.0063793248795354267 -0.012897741091672937 0.014367271472268442 -0.010823564163510404 0.0015160037302203119 -0.012983512190647688 -0.0053920150386899081 -0.013071904360668877 -0.0014183863072395467 0.0057587632388240995 0.011914938357648598 0.020405245771657383 -0.0063164582719730444 0.0088212708352477694 0.024333872563090015 0.015761651312596502 0.024817607563304422 -0.01398573262731106 -0.0093004544117965722 -0.013082162153437119 0.00020173707554495789 0.0012522314862329592 -0.0051710706867138427 0.015038944051831957 0.0047203794909225615 0.014526999133054597 0.031941323400130173 0.006540777580731752 0.0077807802497514445
leaf_weight=50519 29257 73456 12923 13617 69166 31954 9403 25374 13997 33779 9403 18929 19433 856 31400 12845 20547 9531 20436 54383 9117 14987 31834 58664 8859 5128 22660 12807 21894 12842
leaf_count=50519 29257 73456 12923 13617 69166 31954 9403 25374 13997 33779 9403 18929 19433 856 31400 12845 20547 9531 20436 54383 9117 14987 31834 58664 8859 5128 22660 12807 21894 12842
internal_value=0 0.00541855 0.012891 0.0147405 -0.00619246 -0.00138152 0.002544 0.00393125 -0.00232013 -0.00122981 0.00704208 0.0111719 0.0219686 0.0242217 0.00903092 0.0248015 0.0126212 0.0159518 -0.00909739 -0.00854914 -0.00599473 -0.00526414 0.00154451 -0.00715757 0.0201069 -0.00369192 0.0112129 0.028132 0.0034073 0.00331197
internal_weight=0 405328 193117 180194 354672 212211 114651 105248 152023 138026 74746 120636 59558 45941 83317 45085 29950 37319 202649 182213 97560 88443 87507 113047 18390 30502 54060 25652 53728 44796
internal_count=760000 405328 193117 180194 354672 212211 114651 105248 152023 138026 74746 120636 59558 45941 83317 45085 29950 37319 202649 182213 97560 88443 87507 113047 18390 30502 54060 25652 53728 44796
is_linear=0
shrinkage=0.1


Tree=5
num_leaves=31
num_cat=0
split_feature=4 5 5 2 29 29 5 1 29 2 5 33 5 5 2 29 33 13 1 2 29 33 13 8 33 8 8 13 23 29
split_gain=2090.25 958.947 951.61 536.553 456.194 375.984 210.043 153.592 142.83 142.089 132.006 124.623 105.673 103.139 94.3551 85.9864 80.9481 63.2604 62.3628 62.2491 54.8966 49.6339 46.8217 45.3228 43.5495 41.3025 40.6841 34.2727 33.0285 32.4649
threshold=2.5000000000000004 1.0000000180025095e-35 1.0000000180025095e-35 10.415000000000001 1.0000000180025095e-35 1.0000000180025095e-35 1.5000000000000002 4.0000000000000009 1.0000000180025095e-35 10.167500000000002 1.5000000000000002 2725.0000000000005 3.5000000000000004 3.5000000000000004 12.742000000000003 1.0000000180025095e-35 2998.5000000000005 25.455000000000002 4.0000000000000009 7.2250000000000005 1.0000000180025095e-35 2816.0000000000005 22.695000000000004 1.0000000180025095e-35 4063.5000000000005 1.0000000180025095e-35 1.0000000180025095e-35 20.425909090000001 4.5000000000000009 1.0000000180025095e-35
decision_type=2 2 2 2 2 2 2 2 2 2 2 2 2 2 2 2 2 10 2 2 2 2 10 2 2 2 2 10 10 2
left_child=1 3 4 19 7 11 29 16 13 -3 -11 27 15 18 28 21 -2 23 -8 -1 -21 -12 -20 -9 25 -16 -23 -5 -13 -4
right_child=2 9 6 5 -6 -7 8 17 -10 10 12 14 -14 -15 24 -17 -18 -19 22 20 -22 26 -24 -25 -26 -27 -28 -29 -30 -31
leaf_value=-0.0085469961710706172 0.009442622693462582 -0.0092776249346220516 -0.002180799742228904 0.00057666289273003381 -0.011593274396268703 -0.011638799571657924 0.0065179843938640448 0.016033027471776481 -0.011753750771661348 -0.007722154320284432 -0.0026698193201787311 0.0026187437158036973 -0.0073410863961951532 0.00044478774727998933 0.0089312716806654903 -0.011628569773984897 0.018101414451158312 0.027804466898451466 0.010708835141827419 -0.0018799368652422006 -0.011675159319388943 -0.00045657990532936733 0.021285465304419285 0.023663577719492047 -0.015025767026431609 0.014901968557435275 0.0060412344701766879 0.0060615795578819283 0.0078611619818794581 -0.011623134225822285
leaf_weight=26390 21628 126030 39312 32520 5528 12331 17690 16471 4029 91161 25673 21361 31056 13603 21309 6159 21559 13629 10448 60336 6321 18109 6983 14759 596 25391 20594 17535 27476 4013
leaf_count=26390 21628 126030 39312 32520 5528 12331 17690 16471 4029 91161 25673 21361 31056 13603 21309 6159 21559 13629 10448 60336 6321 18109 6983 14759 596 25391 20594 17535 27476 4013
internal_value=0 -0.00302413 0.0090946 0.00159168 0.0162723 0.00512995 0.00210397 0.0180218 0.00634125 -0.00666669 -0.00495954 0.0065444 -0.00248056 0.00783753 0.00865124 -0.000340507 0.0137651 0.0221199 0.0107009 -0.00443627 -0.00280881 0.000739448 0.0149459 0.0196392 0.0118348 0.0121776 0.00300093 0.00249811 0.00556816 -0.0030554
internal_weight=0 570348 189652 251566 93574 158519 96078 88046 52753 318782 192752 146188 101591 48724 96133 70535 43187 44859 35121 93047 66657 64376 17431 31230 47296 46700 38703 50055 48837 43325
internal_count=760000 570348 189652 251566 93574 158519 96078 88046 52753 318782 192752 146188 101591 48724 96133 70535 43187 44859 35121 93047 66657 64376 17431 31230 47296 46700 38703 50055 48837 43325
is_linear=0
shrinkage=0.1


Tree=6
num_leaves=31
num_cat=0
split_feature=2 5 5 29 2 5 29 4 29 5 33 33 2 33 5 33 5 1 2 3 8 1 29 3 29 8 33 8 33 33
split_gain=1717.41 1027.92 551.527 471.752 301.93 215.411 208.444 192.93 138.639 124.12 101.5 89.6573 83.0689 73.0093 69.7762 67.1488 56.8484 54.1296 51.7122 51.1704 49.6423 48.5251 48.1069 47.9352 46.265 43.6399 41.2735 40.2886 35.7481 34.3946
threshold=14.340000000000002 1.0000000180025095e-35 1.0000000180025095e-35 1.0000000180025095e-35 10.167500000000002 1.5000000000000002 1.0000000180025095e-35 3.5000000000000004 1.0000000180025095e-35 3.5000000000000004 2664.0000000000005 2633.5000000000005 9.7300000000000022 2633.5000000000005 1.5000000000000002 4063.5000000000005 3.5000000000000004 4.0000000000000009 6.8920000000000003 172.04500000000004 1.0000000180025095e-35 4.0000000000000009 1.0000000180025095e-35 256.90500000000003 1.0000000180025095e-35 1.0000000180025095e-35 2511.0000000000005 1.0000000180025095e-35 2694.5000000000005 2572.0000000000005
decision_type=2 2 2 2 2 2 2 2 2 2 2 2 2 2 2 2 2 2 2 2 2 2 2 2 2 2 2 2 2 2
left_child=2 3 4 7 18 29 11 10 9 13 -2 -6 -4 -7 -14 19 22 27 -1 -12 -21 -15 28 -9 -20 -23 -25 -13 -16 -3
right_child=1 5 12 -5 6 8 -8 23 -10 -11 15 17 14 21 16 -17 -18 -19 24 20 -22 25 -24 26 -26 -27 -28 -29 -30 -31
leaf_value=-0.0084717800748584961 0.0069255811157997605 -0.0073381320122846358 -0.0086238772456616371 -0.010423733932942348 2.5248555047451803e-05 0.0024680592619135801 -0.010486327415898226 0.010366299689182783 -0.010552400248171685 -0.001407326307374472 0.0057137563156937233 0.0022673372836830782 -0.007223209995963752 0.0072277433333682688 -0.0044327218431930568 -0.013583678923451636 -0.0069447558758768306 0.011443252600253528 -0.0019473036547686116 0.012250343472562965 0.018569725946942554 0.0097648123192606989 -0.010506483143908254 0.014649062710694202 -0.01058224418454673 0.02064607937397946 0.023486060266678696 0.0072802069895104189 0.0011124880610547296 -0.0023120557587016002
leaf_weight=20395 29054 19867 109102 8214 29401 16335 9734 4226 6010 19848 5780 27947 79403 18605 16626 857 27025 17220 65245 23096 26920 7807 5326 6637 6857 6982 25949 37608 38655 43269
leaf_count=20395 29054 19867 109102 8214 29401 16335 9734 4226 6010 19848 5780 27947 79403 18605 16626 857 27025 17220 65245 23096 26920 7807 5326 6637 6857 6982 25949 37608 38655 43269
internal_value=0 0.00641395 -0.00352318 0.0127763 0.0002821 0.00041805 0.00355082 0.0143317 0.00401948 0.00527818 0.011731 0.00476888 -0.0064778 0.00794652 -0.00507606 0.0141955 -0.00313053 0.00645379 -0.00402604 0.0146221 0.0156516 0.0106264 -0.00142975 0.0203867 -0.0027685 0.0149019 0.0216862 0.00514315 -0.000555258 -0.00389361
internal_weight=0 269456 490544 130733 214407 138723 121910 122519 75587 69577 85707 112176 276137 49729 167035 56653 87632 82775 92497 55796 50016 33394 60607 36812 72102 14789 32586 65555 55281 63136
internal_count=760000 269456 490544 130733 214407 138723 121910 122519 75587 69577 85707 112176 276137 49729 167035 56653 87632 82775 92497 55796 50016 33394 60607 36812 72102 14789 32586 65555 55281 63136
is_linear=0
shrinkage=0.1


Tree=7
num_leaves=31
num_cat=0
split_feature=4 5 29 4 5 5 29 5 13 2 2 29 1 1 1 33 8 13 33 5 8 29 5 30 1 15 5 1 8 1
split_gain=1405.15 1094.92 493.266 261.433 210.475 207.209 136.19 133.644 121.045 97.9503 93.973 88.3842 57.1179 50.4207 43.173 42.815 42.8122 40.7469 39.1932 39.1823 39.0217 38.5601 37.3663 36.195 38.6117 35.7166 34.5145 33.1637 32.259 31.6229
threshold=1.5000000000000002 1.0000000180025095e-35 1.0000000180025095e-35 3.5000000000000004 1.0000000180025095e-35 1.5000000000000002 1.0000000180025095e-35 3.5000000000000004 20.925000000000004 7.9620000000000006 19.98 1.0000000180025095e-35 4.0000000000000009 4.0000000000000009 4.0000000000000009 3090.0000000000005 1.0000000180025095e-35 24.325000000000003 3211.5000000000005 4.5000000000000009 1.0000000180025095e-35 1.0000000180025095e-35 1.5000000000000002 1.0000000180025095e-35 4.0000000000000009 691.13636365000013 3.5000000000000004 4.0000000000000009 1.0000000180025095e-35 4.0000000000000009
decision_type=2 2 2 2 2 2 2 2 10 2 2 2 2 2 2 2 2 10 2 2 2 2 2 2 2 2 2 2 2 2
left_child=4 2 3 8 9 23 7 10 14 -1 13 16 18 -7 15 -2 -11 -5 -10 29 -15 22 -6 24 -3 -14 -24 -18 -16 -9
right_child=1 5 -4 17 21 6 -8 19 12 11 -12 -13 25 20 28 -17 27 -19 -20 -21 -22 -23 26 -25 -26 -27 -28 -29 -30 -31
leaf_value=-0.0056097409493711184 0.002437775929175586 -0.0052637478654093571 -0.0094015309089714189 0.015837958640360892 -0.0077203205663680316 0.0016374427929162823 -0.0095841377645518623 -0.0028655819508719184 0.0079423780413534154 -0.0013153801641364283 0.012975251243474435 -0.009409770914922802 0.02082920502242358 0.0039780902359020575 0.0067524030767397896 0.0080188874927663335 0.0021253537693835646 0.0227624949705564 0.014413490060623433 -0.007241899088761195 0.012896538402932667 -0.010825576900635233 -0.0035477490782507958 -0.010322541664083289 -0.00090428422251237711 0.012164085286533984 -0.0076685395573435639 0.011743615780121243 0.013754130235856874 0.0056252837336152493
leaf_weight=46469 31981 56818 12923 23533 88372 41607 9403 12282 26763 47993 13015 9299 10277 11648 15607 24106 44362 13301 14393 11397 8476 20436 64072 9117 31625 8856 29769 3900 11377 6823
leaf_count=46469 31981 56818 12923 23533 88372 41607 9403 12282 26763 47993 13015 9299 10277 11648 15607 24106 44362 13301 14393 11397 8476 20436 64072 9117 31625 8856 29769 3900 11377 6823
internal_value=0 0.00402221 0.00947051 0.010824 -0.00459668 -0.000935879 0.00194661 0.00297678 0.00889323 -0.0017841 0.00525312 -9.99058e-05 0.0123041 0.00362503 0.00641778 0.00483652 0.000799501 0.0183385 0.0102054 -0.00260146 0.00773444 -0.00670661 -0.00624465 -0.00432333 -0.00370491 0.0168184 -0.00485498 0.0029026 0.00970447 0.000166775
internal_weight=0 405328 193117 180194 354672 212211 114651 105248 143360 152023 74746 105554 60289 61731 83071 56087 96255 36834 41156 30502 20124 202649 182213 97560 88443 19133 93841 48262 26984 19105
internal_count=760000 405328 193117 180194 354672 212211 114651 105248 143360 152023 74746 105554 60289 61731 83071 56087 96255 36834 41156 30502 20124 202649 182213 97560 88443 19133 93841 48262 26984 19105
is_linear=0
shrinkage=0.1


Tree=8
num_leaves=31
num_cat=0
split_feature=4 5 5 2 29 29 5 1 5 13 29 5 5 2 13 33 1 33 29 33 2 33 29 15 13 1 3 33 8 3
split_gain=1183.99 510.751 499.408 289.332 246.802 194.492 112.396 94.9097 82.466 79.3452 78.8663 72.4413 64.9716 62.1281 55.2366 54.5938 45.5433 43.41 41.8061 41.6483 40.0469 36.3768 36.1868 34.0506 35.4247 34.0403 32.0701 31.5298 30.0116 27.9382
threshold=2.5000000000000004 1.0000000180025095e-35 1.0000000180025095e-35 10.745000000000003 1.0000000180025095e-35 1.0000000180025095e-35 1.5000000000000002 4.0000000000000009 1.5000000000000002 18.850454545000002 1.0000000180025095e-35 3.5000000000000004 4.5000000000000009 11.393000000000002 23.835000000000004 3090.0000000000005 4.0000000000000009 2480.5000000000005 1.0000000180025095e-35 3211.5000000000005 6.8920000000000003 2725.0000000000005 1.0000000180025095e-35 691.13636365000013 23.605000000000004 4.0000000000000009 184.33000000000001 2998.5000000000005 1.0000000180025095e-35 202.49500000000003
decision_type=2 2 2 2 2 2 2 2 2 10 2 2 2 2 10 2 2 2 2 2 2 2 2 2 10 2 2 2 2 2
left_child=1 3 4 20 7 9 -4 15 -3 21 12 13 14 -10 26 -2 19 -9 27 -11 -1 -5 -22 24 -19 -16 -8 -15 -29 -23
right_child=2 8 6 5 -6 -7 10 17 11 16 -12 -13 -14 18 25 -17 -18 23 -20 -21 22 29 -24 -25 -26 -27 -28 28 -30 -31
leaf_value=-0.0070465908658122025 0.0068381139856957228 -0.0066103231587968173 -0.0019935973089723591 -0.00017184018158314645 -0.0084513932733369292 -0.0084870589210898576 -0.0045482649784225468 0.010381611386191689 -0.0043947414151068644 0.0040060374186331035 -0.0085659031095813073 -0.0064919969590594775 -0.0049224382991333868 -0.0011861412778651007 0.0073618621357266455 0.014002009106227776 0.012288879900891159 0.017127108083812809 -0.0084224429907336935 0.010179061716811974 -0.0013872923022809345 -0.00044446354028995685 -0.0086955977182151447 0.013375786033485557 0.024823945507989609 0.016802068106342809 0.0058421386226161611 9.7574191338304987e-06 0.0069084441620887692 0.0056145597217542318
leaf_weight=20353 24215 152837 43325 28187 5528 11798 3368 9089 55181 33926 4029 51808 4905 28592 7665 18972 14924 15342 5054 16124 71988 9566 7479 10629 9799 7614 25172 11918 13392 37221
leaf_count=20353 24215 152837 43325 28187 5528 11798 3368 9089 55181 33926 4029 51808 4905 28592 7665 18972 14924 15342 5054 16124 71988 9566 7479 10629 9799 7614 25172 11918 13392 37221
internal_value=0 -0.00227602 0.00684478 0.00109262 0.0120445 0.00384319 0.00178053 0.0133314 -0.00493438 0.00488267 0.00488015 -0.00339083 0.00599201 -0.00198317 0.00721375 0.0099852 0.00744044 0.0165528 0.000273984 0.00599473 -0.00308878 0.00266605 -0.00207511 0.0181209 0.020127 0.0120662 0.00461597 0.00108938 0.00365998 0.00437574
internal_weight=0 570348 189652 251566 93574 151746 96078 88046 318782 139948 52753 165945 48724 114137 43819 43187 64974 44859 58956 50050 99820 74974 79467 35770 25141 15279 28540 53902 25310 46787
internal_count=760000 570348 189652 251566 93574 151746 96078 88046 318782 139948 52753 165945 48724 114137 43819 43187 64974 44859 58956 50050 99820 74974 79467 35770 25141 15279 28540 53902 25310 46787
is_linear=0
shrinkage=0.1


Tree=9
num_leaves=31
num_cat=0
split_feature=2 5 29 5 33 2 5 4 29 33 29 33 4 8 3 23 1 2 29 5 5 5 33 33 8 1 30 23 16 1
split_gain=966.507 620.034 283.935 228.667 132.865 124.691 124.459 91.1163 87.404 84.9534 74.577 72.1729 59.955 58.9872 49.6573 47.573 46.3889 45.4934 44.4445 42.7864 35.3978 36.0151 32.1377 31.0327 29.7012 29.2622 27.5808 26.2966 26.0522 24.7429
threshold=13.661000000000003 1.0000000180025095e-35 1.0000000180025095e-35 1.0000000180025095e-35 2633.5000000000005 9.7300000000000022 1.5000000000000002 4.5000000000000009 1.0000000180025095e-35 2633.5000000000005 1.0000000180025095e-35 4063.5000000000005 3.5000000000000004 1.0000000180025095e-35 169.76500000000001 5.5000000000000009 4.0000000000000009 7.8850000000000007 1.0000000180025095e-35 4.5000000000000009 1.5000000000000002 4.5000000000000009 2664.0000000000005 2725.0000000000005 1.0000000180025095e-35 4.0000000000000009 1.0000000180025095e-35 5.5000000000000009 733.85606060000021 4.0000000000000009
decision_type=2 2 2 2 2 2 2 2 2 2 2 2 2 2 2 10 2 2 2 2 2 2 2 2 2 2 2 10 2 2
left_child=3 2 4 5 16 28 22 11 15 -8 12 13 19 25 -15 -7 -2 -5 20 24 -19 29 -3 -17 -11 -6 -24 -16 -1 -22
right_child=1 6 -4 17 7 8 9 -9 -10 10 -12 -13 -14 14 27 23 -18 18 -20 -21 21 -23 26 -25 -26 -27 -28 -29 -30 -31
leaf_value=-0.0020873789476613907 0.002698023785085395 -0.0057547711912574497 -0.0076285804561829615 -0.0076301762709221968 0.0059151078071035014 0.00076570110136613633 -0.0018263249327266588 0.022175655823085463 -0.0075962739150156298 0.0018107860567973426 -0.0077001965224451421 -0.015273320995866672 0.01145337540192929 0.0048903402088373892 0.012677408686531206 0.00054567538843312857 0.0091134430266477159 -0.0052961062320556213 -0.0088668707334405746 -0.0055461689982780797 -0.0024446061738890548 -0.0077923134455315695 -0.00070373212573187824 0.0067379892496851092 0.0075152123306495419 0.011366613702436185 -0.0090417960401105914 0.017655005829468121 -0.0058444265193574492 0.0025809163021589107
leaf_weight=50513 25910 27667 9849 52614 20524 61288 30402 8097 9262 16826 4499 1026 13586 5614 23870 10929 19949 85249 19392 4384 70118 11191 43227 31189 19949 18926 4368 19111 29083 11388
leaf_count=50513 25910 27667 9849 52614 20524 61288 30402 8097 9262 16826 4499 1026 13586 5614 23870 10929 19949 85249 19392 4384 70118 11191 43227 31189 19949 18926 4368 19111 29083 11388
internal_value=0 0.00420675 0.00879443 -0.00302304 0.00992533 -0.000430277 -4.62e-05 0.0120192 0.00171021 0.00247098 0.00467621 0.0110959 0.00569331 0.0114032 0.0137353 0.00254379 0.00548878 -0.00501741 -0.0043208 0.003792 -0.00382538 -0.00247282 -0.00304446 0.00513118 0.00490521 0.00853045 -0.00146895 0.0148906 -0.00346014 -0.00174244
internal_weight=0 317784 152876 442216 143027 192264 164908 97168 112668 89646 59244 89071 54745 88045 48595 103406 45859 249952 197338 41159 177946 92697 75262 42118 36775 39450 47595 42981 79596 81506
internal_count=760000 317784 152876 442216 143027 192264 164908 97168 112668 89646 59244 89071 54745 88045 48595 103406 45859 249952 197338 41159 177946 92697 75262 42118 36775 39450 47595 42981 79596 81506
is_linear=0
shrinkage=0.1


Tree=10
num_leaves=31
num_cat=0
split_feature=4 5 5 2 29 29 3 29 1 13 2 8 13 30 5 5 2 33 13 33 29 15 33 8 18 15 13 8 1 25
split_gain=805.525 333.632 328.497 193.271 163.975 118.073 77.1873 73.4357 75.7809 60.5426 58.6609 54.9865 54.2958 46.6016 45.3494 42.3093 38.7929 37.093 36.9807 32.2166 31.3803 30.3912 29.725 28.8569 27.6963 25.7671 24.1247 23.4421 22.3545 20.937
threshold=2.5000000000000004 1.0000000180025095e-35 1.0000000180025095e-35 11.393000000000002 1.0000000180025095e-35 1.0000000180025095e-35 210.60000000000005 1.0000000180025095e-35 4.0000000000000009 19.135000000000002 10.167500000000002 1.0000000180025095e-35 20.725000000000005 1.0000000180025095e-35 1.5000000000000002 4.5000000000000009 7.8850000000000007 2451.0000000000005 17.061818180000003 3059.5000000000005 1.0000000180025095e-35 688.18181820000007 2998.5000000000005 1.0000000180025095e-35 25754.500000000004 683.40909090000014 21.950909090000003 1.0000000180025095e-35 4.0000000000000009 2.5000000000000004
decision_type=2 2 2 2 2 2 2 2 2 10 2 2 10 2 2 2 2 2 8 2 2 2 2 2 2 2 10 2 2 10
left_child=1 3 4 16 6 12 -2 8 19 24 -3 26 22 14 -12 18 -1 -13 -16 -4 23 -11 -5 -18 -8 -14 -10 -20 -25 -24
right_child=2 10 7 5 -6 -7 9 -9 11 21 13 17 25 -15 15 -17 20 -19 27 -21 -22 -23 29 28 -26 -27 -28 -29 -30 -31
leaf_value=-0.0047573215238269732 0.0030839505532043168 -0.0057034762126012975 -0.0027589495052387212 0.00074634228578683397 -0.0068433979007263175 -0.0068681217833939327 0.0099263123246748491 -0.0076087169093490975 -0.0006159414201574061 0.016476986569759874 -0.0041401271031159068 0.00068718546597012825 0.0094072509235193988 -0.0077922712171249785 -0.0024009781401568829 -0.0067894135202286945 -0.0021872476900860211 0.011587514671996327 -0.00053701755953003947 0.0025903469978887199 -0.0071263311725937601 0.010843809205832536 0.009248727405350269 0.0010748171572522254 0.00096825940371233717 0.0047831891172888021 0.0059657150041722085 0.004110473622995812 0.010488161235840558 0.0034156433384002686
leaf_weight=37683 11020 126030 25975 39928 5528 10255 30549 8042 13384 28041 82282 3919 22272 17876 38314 10823 37151 15348 21037 19872 7277 14545 7947 32796 3891 26259 9538 22420 2733 27265
leaf_count=37683 11020 126030 25975 39928 5528 10255 30549 8042 13384 28041 82282 3919 22272 17876 38314 10823 37151 15348 21037 19872 7277 14545 7947 32796 3891 26259 9538 22420 2733 27265
internal_value=0 -0.00187733 0.00564578 0.000845271 0.00986295 0.00344305 0.0109119 0.00153852 0.00237411 0.0120318 -0.00402587 0.00543259 0.00429807 -0.00292898 -0.00243184 -0.00091381 -0.00211215 0.00937034 -0.00013613 -0.000440342 -0.000865501 0.014553 0.00261415 -0.000238643 0.00891424 0.00690528 0.00212273 0.00186068 0.00179892 0.00473211
internal_weight=0 570348 189652 251566 93574 133926 88046 96078 88036 77026 318782 42189 123671 192752 174876 92594 117640 19267 81771 45847 79957 42586 75140 72680 34440 48531 22922 43457 35529 35212
internal_count=760000 570348 189652 251566 93574 133926 88046 96078 88036 77026 318782 42189 123671 192752 174876 92594 117640 19267 81771 45847 79957 42586 75140 72680 34440 48531 22922 43457 35529 35212
is_linear=0
shrinkage=0.1


Tree=11
num_leaves=31
num_cat=0
split_feature=2 5 5 4 29 29 5 33 1 33 5 29 0 8 16 13 8 30 1 8 33 1 33 8 1 4 24 1 23 33
split_gain=658.597 277.018 261.854 154.276 137.315 77.2133 76.6002 62.6742 54.8367 53.7676 49.3285 50.0167 47.9355 48.1878 47.3815 43.4055 40.0836 35.9826 37.3176 34.5166 34.1974 32.716 29.5137 25.763 25.3577 23.3265 22.411 21.562 21.1118 20.6669
threshold=15.893000000000002 1.0000000180025095e-35 1.0000000180025095e-35 1.5000000000000002 1.0000000180025095e-35 1.0000000180025095e-35 1.5000000000000002 2451.0000000000005 4.0000000000000009 4033.0000000000005 4.5000000000000009 1.0000000180025095e-35 7212.5000000000009 1.0000000180025095e-35 704.08333335000009 21.842727275000005 1.0000000180025095e-35 1.0000000180025095e-35 4.0000000000000009 1.0000000180025095e-35 3181.5000000000005 4.0000000000000009 3181.5000000000005 1.0000000180025095e-35 4.0000000000000009 4.5000000000000009 1.0000000180025095e-35 4.0000000000000009 4.5000000000000009 3211.5000000000005
decision_type=2 2 2 2 2 2 2 2 2 2 2 2 2 2 2 10 2 2 2 2 2 2 2 2 2 2 8 2 10 2
left_child=2 4 3 14 7 16 -3 -2 19 12 11 15 -9 -14 17 -8 -5 18 20 -4 -1 28 -21 -10 -16 -15 -22 -17 -18 -30
right_child=1 6 8 5 -6 -7 10 9 23 -11 -12 -13 13 25 24 27 21 -19 -20 22 26 -23 -24 -25 -26 -27 -28 -29 29 -31
leaf_value=-0.00096587684690837184 0.0047193407415724586 -0.0017703397696358513 -0.0053567525113765039 0.0023313822188159201 -0.0061678841294799608 -0.0061655919209425581 0.0031186649962496749 0.0056099459190025102 -0.0022415716869692991 -0.010064207534840768 -0.0050430710378028395 -0.0064000822438857689 0.0096554123431774955 0.014258735260488282 -0.0037924638062076218 0.0060381961493271054 0.0026603721112447251 -0.0067007921198991519 0.011212192069380945 -0.0040918108193538465 0.0030575615430618766 0.011553154937172065 -0.00095263994891019448 0.0026402881206016027 0.0016484108848061037 0.02205547400851077 0.016596097768085526 0.012795831386318733 0.0053731193163565815 0.012405002532489382
leaf_weight=45562 19255 44721 130956 41503 5741 7182 26191 11520 30170 1175 5633 3661 27839 26157 65309 9469 17495 6443 3474 93796 20074 10349 43999 16846 9859 4497 1302 9418 14538 5866
leaf_count=45562 19255 44721 130956 41503 5741 7182 26191 11520 30170 1175 5633 3661 27839 26157 65309 9469 17495 6443 3474 93796 20074 10349 43999 16846 9859 4497 1302 9418 14538 5866
internal_value=0 0.00500605 -0.00173105 0.00069407 0.008829 0.00381157 0.00129533 0.00978095 -0.00364306 0.01115 0.00381684 0.00484083 0.011506 0.0126673 -0.00129371 0.00575376 0.00460996 0.000452232 0.00110676 -0.00419425 0.000582305 0.00656999 -0.00308945 -0.000492384 -0.00307884 0.0154025 0.00388219 0.00940789 0.00520925 0.00739473
internal_weight=0 195277 564723 248956 96184 96933 99093 90443 315767 71188 54372 48739 70013 58493 152023 45078 89751 76855 70412 268751 66938 48248 137795 47016 75168 30654 21376 18887 37899 20404
internal_count=760000 195277 564723 248956 96184 96933 99093 90443 315767 71188 54372 48739 70013 58493 152023 45078 89751 76855 70412 268751 66938 48248 137795 47016 75168 30654 21376 18887 37899 20404
is_linear=0
shrinkage=0.1


Tree=12
num_leaves=31
num_cat=0
split_feature=2 5 29 1 5 5 5 13 15 33 29 33 3 13 8 8 15 29 29 2 15 3 2 33 33 33 24 2 33 33
split_gain=538.311 349.74 162.489 102.296 101.974 88.6614 66.0185 59.3732 56.4709 53.6293 50.7561 46.3583 44.8593 43.1978 38.4136 33.3576 32.7439 31.8743 27.8277 28.604 25.8887 25.0165 24.637 21.8535 21.7273 21.6277 23.6431 21.3747 21.3193 23.6751
threshold=13.115 1.0000000180025095e-35 1.0000000180025095e-35 4.0000000000000009 1.0000000180025095e-35 1.5000000000000002 3.5000000000000004 21.215000000000003 707.04545455000004 2664.0000000000005 1.0000000180025095e-35 2541.5000000000005 158.28500000000005 17.445000000000004 1.0000000180025095e-35 1.0000000180025095e-35 695.22727275000011 1.0000000180025095e-35 1.0000000180025095e-35 7.8850000000000007 704.77272725000012 121.29500000000002 19.525000000000002 2541.5000000000005 3181.5000000000005 3211.5000000000005 1.0000000180025095e-35 19.056000000000004 3821.0000000000005 2480.5000000000005
decision_type=2 2 2 2 2 2 2 10 2 2 2 2 2 10 2 2 2 2 2 2 2 2 2 2 2 2 8 2 2 2
left_child=4 2 3 9 7 23 10 16 13 -2 11 -7 -13 -5 -14 -11 -1 20 19 -6 25 -17 -23 -3 -21 -9 -27 -16 29 -15
right_child=1 5 -4 8 18 6 -8 17 -10 15 -12 12 14 28 27 21 -18 -19 -20 24 -22 22 -24 -25 -26 26 -28 -29 -30 -31
leaf_value=-0.00018795138079160284 0.0012241939221955026 -0.0050855041988826441 -0.0055633098497637496 0.0078810173430796989 -0.0056521582858234734 -0.00014810114295679428 -0.002152876913573252 0.0032202692250850639 0.0039862437218582463 0.0035810265272733358 -0.0057766631270352161 -0.0038037032545961283 0.0037047749914405521 0.0086787650732986412 0.0079089172920523872 0.00083486704731749149 -0.0034396300093100206 -0.0060374067815198544 -0.0071391670935907542 -0.0036610705378794595 0.00031932315679131999 0.0080042702456664238 0.015307233007243029 -0.0015213705052290116 -0.0011865370848830811 0.0077013743474382461 0.026622881819506755 0.01494708930923537 0.0005703196855376089 0.015579898504889951
leaf_weight=60300 28606 24150 11049 21070 47140 17252 28950 19420 12706 24591 5421 4332 20377 6210 17299 4007 63664 4367 23161 108495 21736 28474 5514 59807 52727 6584 734 5749 1191 24917
leaf_count=60300 28606 24150 11049 21070 47140 17252 28950 19420 12706 24591 5421 4332 20377 6210 17299 4007 63664 4367 23161 108495 21736 28474 5514 59807 52727 6584 734 5749 1191 24917
internal_value=0 0.00286778 0.00615888 0.00698234 -0.00246987 -0.000154022 0.00186723 -0.000661486 0.00997792 0.0048112 0.00351968 0.00429489 0.0058999 0.0114039 0.00686792 0.00645071 -0.00185791 0.00214531 -0.00385086 -0.00348534 0.00288248 0.00830801 0.00918906 -0.00254658 -0.00285178 0.00496614 0.00959921 0.00966449 0.0137007 0.0142031
internal_weight=0 351672 168335 157286 408328 183337 99380 176805 66094 91192 70430 65009 47757 53388 43425 62586 123964 52841 231523 208362 48474 37995 33988 83957 161222 26738 7318 23048 32318 31127
internal_count=760000 351672 168335 157286 408328 183337 99380 176805 66094 91192 70430 65009 47757 53388 43425 62586 123964 52841 231523 208362 48474 37995 33988 83957 161222 26738 7318 23048 32318 31127
is_linear=0
shrinkage=0.1


Tree=13
num_leaves=31
num_cat=0
split_feature=1 5 29 8 4 5 29 15 15 8 33 8 33 5 2 13 13 15 33 5 33 5 3 13 5 13 15 33 33 24
split_gain=455.832 199.944 153.45 154.207 153.048 75.1203 64.5508 60.6537 52.1536 47.6936 45.3351 38.0252 37.0847 36.1983 35.6102 33.572 33.3739 27.6554 26.6628 25.9519 24.173 22.7562 22.2905 21.9735 20.823 20.7326 19.5143 18.9164 18.249 17.836
threshold=4.0000000000000009 1.0000000180025095e-35 1.0000000180025095e-35 1.0000000180025095e-35 1.5000000000000002 1.0000000180025095e-35 1.0000000180025095e-35 683.40909090000014 707.04545455000004 1.0000000180025095e-35 3181.5000000000005 1.0000000180025095e-35 3211.5000000000005 1.0000000180025095e-35 11.393000000000002 20.925000000000004 13.810454545000002 676.13636365000013 4002.5000000000005 1.5000000000000002 3181.5000000000005 3.5000000000000004 140.90000000000001 14.773181820000001 1.5000000000000002 18.104545455000004 680.90909090000014 2480.5000000000005 3912.0000000000005 1.5000000000000002
decision_type=2 2 2 2 2 2 2 2 2 2 2 2 2 2 2 10 10 2 2 2 2 2 2 8 2 8 2 2 2 8
left_child=1 4 3 5 11 8 9 15 16 -6 25 -1 23 -9 -12 -5 -2 -7 19 -16 -13 -21 -14 -11 -15 -3 -27 -17 -18 -24
right_child=2 10 -4 7 6 17 -8 13 -10 12 14 20 22 24 18 27 28 -19 -20 21 -22 -23 29 -25 -26 26 -28 -29 -30 -31
leaf_value=-0.0031791384481885347 0.0022116420787261812 -0.0047888425799154531 -0.0059219418276969952 0.0091332253952245371 0.0014395615430181207 0.003587843227347909 -0.0050431726409290289 0.0091266591111447658 0.00037552074170502358 0.0008325261858176539 -0.0033629396247836126 -0.0011923250446007755 0.0012734325619134228 -0.00056837583198657813 -0.0016030319459584084 0.0067909787263159792 0.0098884834707522254 -0.0015324619566480604 -0.0099061633915301754 0.0044719197845175217 0.0028107871627478403 -0.0014961876819629416 0.0096374530144001935 0.0056046188355767159 0.0059654895191691183 -0.0011408906541876607 -0.0040322816115765823 0.017236058675273887 -0.0082600172576239913 0.02372403184530851
leaf_weight=70394 8489 116756 13497 18290 43376 14837 8485 19478 14131 14464 49373 45455 3164 8807 25983 2037 24279 36494 2464 21467 22577 9096 18034 28985 10932 40626 54866 11651 567 946
leaf_count=70394 8489 116756 13497 18290 43376 14837 8485 19478 14131 14464 49373 45455 3164 8807 25983 2037 24279 36494 2464 21467 22577 9096 18034 28985 10932 40626 54866 11651 567 946
internal_value=0 -0.00138165 0.00434105 0.00515591 0.00070301 0.00259914 0.00335805 0.00870392 0.00546665 0.00401222 -0.00304531 -0.00154978 0.0057135 0.00606824 -0.0013813 0.0119362 0.00762483 -5.24602e-05 0.000276716 0.000720436 0.000136142 0.00269572 0.00904416 0.00401601 0.00305026 -0.00389502 -0.00280217 0.0156817 0.00947432 0.0103396
internal_weight=0 576511 183489 169992 255880 98797 117454 71195 47466 108969 320631 138426 65593 39217 108383 31978 33335 51331 59010 56546 68032 30563 22144 43449 19739 212248 95492 13688 24846 18980
internal_count=760000 576511 183489 169992 255880 98797 117454 71195 47466 108969 320631 138426 65593 39217 108383 31978 33335 51331 59010 56546 68032 30563 22144 43449 19739 212248 95492 13688 24846 18980
is_linear=0
shrinkage=0.1


Tree=14
num_leaves=31
num_cat=0
split_feature=4 5 5 2 29 29 23 4 4 5 5 13 5 13 33 5 15 33 18 3 13 33 8 8 1 29 15 13 33 1
split_gain=387.606 144.195 142.536 92.6641 72.8724 64.5079 48.1928 48.113 46.1283 39.62 42.5173 39.5355 34.7024 31.4278 28.6546 25.4439 24.3445 23.7798 23.6247 23.5879 23.4924 21.8872 21.5053 20.4295 20.8894 19.3297 18.2333 16.888 15.8526 14.9093
threshold=2.5000000000000004 1.0000000180025095e-35 1.0000000180025095e-35 9.7300000000000022 1.0000000180025095e-35 1.0000000180025095e-35 5.5000000000000009 4.5000000000000009 4.5000000000000009 1.5000000000000002 3.5000000000000004 22.052272725000005 1.5000000000000002 18.005000000000006 2602.5000000000005 4.5000000000000009 702.27272725000012 3972.0000000000005 25754.500000000004 250.52500000000003 23.835000000000004 4063.5000000000005 1.0000000180025095e-35 1.0000000180025095e-35 4.0000000000000009 1.0000000180025095e-35 688.18181820000007 16.342727275000005 2816.0000000000005 4.0000000000000009
decision_type=2 2 2 2 2 2 10 2 2 2 2 10 2 8 2 2 2 2 2 2 10 2 2 2 2 2 2 10 2 2
left_child=1 3 4 27 7 6 21 11 12 -3 13 18 -4 -11 -8 20 25 22 19 -2 -14 23 -16 -5 -25 29 -13 -1 -10 -15
right_child=2 9 8 5 -6 -7 14 -9 28 10 -12 26 15 16 17 -17 -18 -19 -20 -21 -22 -23 -24 24 -26 -27 -28 -29 -30 -31
leaf_value=-0.0036733514427312371 0.00052340655209597985 -0.0038764007457647155 -0.0017970012780153342 -0.00064036837619240252 -0.0044429229675521254 -0.0048208880322090373 0.00082600398844915462 0.013396593201595398 0.0028521898806580549 -0.0020691254391869448 -0.0040206742155986337 0.010887926283405078 0.001340867045900012 0.0028400022472532486 0.003831658815069007 -0.0045861193707454695 -0.0014716901247566823 -0.0098614643374792966 -0.0019450111162015228 0.006608989438019199 0.0063445071570210525 -0.015672921146633049 0.0080338211550697661 0.0014702928194896274 0.0069773980022780381 -0.0051318175513422517 0.0059226967771802844 -0.00074893525690850884 0.010517173730449476 0.009432247006451365
leaf_weight=43133 8012 152837 38564 40822 5528 13583 16664 11593 4666 62710 51808 20958 27291 24861 24423 4859 19908 973 4991 31063 14300 792 24292 42233 8230 2678 11429 36421 6398 3980
leaf_count=43133 8012 152837 38564 40822 5528 13583 16664 11593 4666 62710 51808 20958 27291 24861 24423 4859 19908 973 4991 31063 14300 792 24292 42233 8230 2678 11429 36421 6398 3980
internal_value=0 -0.00130226 0.00391633 0.000487628 0.00669424 0.00179284 0.00235987 0.00739349 0.00121083 -0.00271474 -0.00164484 0.00648321 0.000420361 -0.00056643 0.00441445 0.00226127 0.00126595 0.00561792 0.00453368 0.00536119 0.00306124 0.000879316 0.00592709 0.00102293 0.00236845 0.0029951 0.00913575 -0.00233451 0.00728463 0.00374972
internal_weight=0 570348 189652 251566 93574 172012 158429 88046 96078 318782 165945 76453 85014 114137 66352 46450 51427 49688 44066 39075 41591 92077 48715 91285 50463 31519 32387 79554 11064 28841
internal_count=760000 570348 189652 251566 93574 172012 158429 88046 96078 318782 165945 76453 85014 114137 66352 46450 51427 49688 44066 39075 41591 92077 48715 91285 50463 31519 32387 79554 11064 28841
is_linear=0
shrinkage=0.1


Tree=15
num_leaves=31
num_cat=0
split_feature=1 15 15 5 29 13 13 8 8 29 8 33 33 13 24 33 33 5 29 29 13 13 33 5 31 33 5 13 30 8
split_gain=328.36 133.309 114.029 97.9063 88.1035 74.9067 58.6241 45.0661 42.2362 41.523 38.6374 34.2596 32.2216 31.8956 27.3823 28.6329 22.6419 22.4388 20.6162 20.3004 19.0975 17.9909 17.6348 17.6248 17.1901 16.5078 15.9291 15.1235 15.0468 16.1739
threshold=4.0000000000000009 683.40909090000014 690.45454545000018 1.0000000180025095e-35 1.0000000180025095e-35 24.325000000000003 15.584545455000002 1.0000000180025095e-35 1.0000000180025095e-35 1.0000000180025095e-35 1.0000000180025095e-35 3211.5000000000005 3211.5000000000005 24.814090910000001 1.5000000000000002 3760.0000000000005 2480.5000000000005 1.0000000180025095e-35 1.0000000180025095e-35 1.0000000180025095e-35 25.195000000000004 22.161818180000004 3151.5000000000005 1.0000000180025095e-35 2017.5000000000002 3181.5000000000005 1.0000000180025095e-35 19.331818180000003 1.0000000180025095e-35 1.0000000180025095e-35
decision_type=2 2 2 2 2 10 10 2 2 2 2 2 2 8 8 2 2 2 2 2 10 10 2 2 2 2 2 8 2 2
left_child=1 3 4 6 5 8 22 27 17 11 26 -8 -9 25 15 -13 -7 -2 20 21 -14 -12 -1 -10 -18 -5 -4 -3 29 -15
right_child=2 7 10 13 -6 16 9 12 23 -11 19 14 18 28 -16 -17 24 -19 -20 -21 -22 -23 -24 -25 -26 -27 -28 -29 -30 -31
leaf_value=-0.0014287803403668171 0.0052830039887058495 -0.0044398332384642161 0.0012079153658548893 -0.0028991961502026443 -0.0049503260978214737 0.0040211677592038786 0.0038217032310469989 -0.0022662632395726353 0.010224876825030083 -0.0042232382776481768 0.0025820233599742255 0.0095325603591122406 0.00030719164303083459 -0.00047969470529392072 0.022615645474668118 -0.0021750087159160725 0.013026110061506981 0.00034094868510931541 -0.0057897683505236056 -0.0053101679497358336 0.005198611702058837 0.0077268305172942149 0.0026372239243557965 0.0053179948327251939 -0.0021583321374006223 -0.0002212102558351423 -0.002282401306341315 -0.0024980336217003377 -0.0055599423244123494 0.0046177478223007615
leaf_weight=29495 17898 98111 24189 71376 6859 3655 42328 112548 15032 4844 18750 14885 37920 10701 1362 2430 21768 18877 4434 2299 10110 10662 16710 14268 772 33975 28460 67845 2557 14880
leaf_count=29495 17898 98111 24189 71376 6859 3655 42328 112548 15032 4844 18750 14885 37920 10701 1362 2430 21768 18877 4434 2299 10110 10662 16710 14268 772 33975 28460 67845 2557 14880
internal_value=0 -0.00117265 0.0036844 0.000592795 0.0059841 0.00679693 0.00277226 -0.00248243 0.00500293 0.00468826 0.000982094 0.00539586 -0.0013122 -0.00123671 0.0089634 0.00788951 0.0113221 0.00274619 0.000734501 0.00373966 0.0013368 0.00444704 4.16867e-05 0.00783541 0.012506 -0.00203556 -0.000678814 -0.003646 0.00175429 0.00248539
internal_weight=0 576511 183489 245543 99129 92270 112054 330968 66075 65849 84360 61005 165012 133489 18677 17315 26195 36775 52464 31711 48030 29412 46205 29300 22540 105351 52649 165956 28138 25581
internal_count=760000 576511 183489 245543 99129 92270 112054 330968 66075 65849 84360 61005 165012 133489 18677 17315 26195 36775 52464 31711 48030 29412 46205 29300 22540 105351 52649 165956 28138 25581
is_linear=0
shrinkage=0.1


Tree=16
num_leaves=31
num_cat=0
split_feature=2 5 5 2 29 29 33 33 29 2 13 5 29 5 5 21 13 0 23 18 23 33 15 15 8 15 16 1 33 33
split_gain=276.282 107.661 97.1671 63.7943 52.7073 40.7275 39.7616 41.7055 39.1792 37.0867 34.8964 33.1406 31.1465 31.0933 34.0162 30.9315 26.7135 23.1219 21.2249 21.1559 24.5305 20.2237 19.8797 19.7471 19.7235 19.0989 18.1315 17.7601 19.8331 16.5
threshold=15.893000000000002 1.0000000180025095e-35 1.0000000180025095e-35 10.745000000000003 1.0000000180025095e-35 1.0000000180025095e-35 2541.5000000000005 4033.0000000000005 1.0000000180025095e-35 21.200000000000003 18.475000000000005 1.5000000000000002 1.0000000180025095e-35 1.5000000000000002 4.5000000000000009 4.5000000000000009 24.439545455000005 7962.5000000000009 7.5000000000000009 25754.500000000004 5.5000000000000009 4094.5000000000005 626.59090910000009 659.54545455000004 1.0000000180025095e-35 697.72727275000011 829.27272725000012 4.0000000000000009 3211.5000000000005 3790.5000000000005
decision_type=2 2 2 2 2 2 2 2 2 2 10 2 2 2 2 10 8 2 10 2 10 2 2 2 2 2 2 2 2 2
left_child=2 4 3 18 9 10 -3 8 11 15 -5 22 13 23 16 19 -15 -13 -1 20 -2 -11 -8 -4 -19 27 -24 28 -12 -22
right_child=1 6 12 5 -6 -7 7 -9 -10 21 25 17 -14 14 -16 -17 -18 24 -20 -21 29 -23 26 -25 -26 -27 -28 -29 -30 -31
leaf_value=-0.0022719217319540851 0.0051780468923246824 -0.0022657505200163121 0.021837987148630545 0.00061123163165325938 -0.0036656894561301087 -0.0040279970376924752 0.047105398174861202 -0.013065880182821661 -0.005432387943843835 0.0099005890044143712 0.0026666709700131326 6.9536022206104041e-05 -0.0053097857249230548 -0.0011352110743718087 -0.0050475809166424107 0.0018542703201614155 0.0023798580724799998 0.0038420129054292209 0.0015626902281114163 0.0016486845995080817 0.011010322067440539 -0.024920715001367388 0.0004207564289100353 -0.0031105973157423898 0.0090668958393263065 0.001352931262294638 0.053297730775979851 0.0094241768390585547 0.0078472206091128576 -0.0027880140592437645
leaf_weight=82360 21411 27963 318 71319 5741 11585 92 1749 5623 23163 27005 6855 30746 103690 17920 21128 27316 14049 17502 7580 16077 168 27823 135777 14874 21529 65 7482 10174 916
leaf_count=82360 21411 27963 318 71319 5741 11585 92 1749 5623 23163 27005 6855 30746 103690 17920 21128 27316 14049 17502 7580 16077 168 27823 135777 14874 21529 65 7482 10174 916
internal_value=0 0.00324237 -0.00112119 0.000356098 0.00562564 0.00166618 0.000929058 0.00218502 0.00256947 0.00621542 0.00214591 0.00327518 -0.0022859 -0.00195971 -0.000961246 0.00502146 -0.000402286 0.00529136 -0.00159986 0.00647667 0.0074296 0.00964985 0.000697096 -0.0030523 0.00652897 0.00379952 0.000544 0.0049789 0.00408432 0.0102665
internal_weight=0 195277 564723 248956 96184 149094 99093 71130 69381 90443 137509 63758 315767 285021 148926 67112 131006 35778 99862 45984 38404 23331 27980 136095 28923 66190 27888 44661 37179 16993
internal_count=760000 195277 564723 248956 96184 149094 99093 71130 69381 90443 137509 63758 315767 285021 148926 67112 131006 35778 99862 45984 38404 23331 27980 136095 28923 66190 27888 44661 37179 16993
is_linear=0
shrinkage=0.1


Tree=17
num_leaves=31
num_cat=0
split_feature=1 8 8 5 29 13 33 8 13 23 15 33 15 5 29 15 33 29 33 13 33 29 15 4 13 15 5 23 13 24
split_gain=237.758 102.1 87.1201 71.8456 53.2577 45.8007 44.3567 44.0696 39.6113 33.5745 32.212 28.1598 26.7602 26.4046 24.1323 23.5349 23.4777 22.5234 20.8098 20.6833 20.4194 19.4336 20.2297 18.2379 17.6258 17.28 15.9549 15.3891 13.9296 13.2537
threshold=4.0000000000000009 1.0000000180025095e-35 1.0000000180025095e-35 1.0000000180025095e-35 1.0000000180025095e-35 22.915000000000003 2480.5000000000005 1.5000000000000002 17.445000000000004 7.5000000000000009 702.27272725000012 3151.5000000000005 707.04545455000004 1.0000000180025095e-35 1.0000000180025095e-35 685.68181820000007 3181.5000000000005 1.0000000180025095e-35 4033.0000000000005 19.331818180000003 3912.0000000000005 1.0000000180025095e-35 702.27272725000012 4.5000000000000009 14.863181820000001 697.72727275000011 1.0000000180025095e-35 4.5000000000000009 21.119090910000004 inf
decision_type=2 2 2 2 2 10 2 2 10 10 2 2 2 2 2 2 2 2 2 10 2 2 2 2 8 2 2 10 10 8
left_child=1 12 8 5 6 14 -4 9 -2 18 17 -5 13 19 15 27 -7 20 23 -1 26 22 24 28 -13 -18 -10 -3 -8 -26
right_child=2 3 4 11 -6 16 7 -9 10 -11 -12 21 -14 -15 -16 -17 25 -19 -20 -21 -22 -23 -24 -25 29 -27 -28 -29 -30 -31
leaf_value=-0.0017720904078576986 -0.00083244685678862955 0.00084492815070242103 0.0013150705198671402 -0.0021088095713300684 -0.0041756820182347913 0.0029731295997175592 0.0054542912098520429 0.0027495285224143034 0.0079325437852489807 0.014353734926958711 -0.00011357577162670089 -0.00022248990669825088 -0.0038423541946192383 -0.0028027368475174014 -0.004410534844569357 -0.00049905969399247887 0.010574004126531228 -0.00404404237207535 -0.012853333158898601 0.0014778657668984689 -0.010006690894266921 -0.0050190441906068951 -0.0015634099894810795 0.014543530623154808 0.0036619056332807608 0.0033040476491803944 0.0036352955332001344 0.0044006434910171532 0.0099270565325839336 0.014441118534051531
leaf_weight=45180 48128 22879 13718 107984 5078 25537 18141 13937 17490 9827 20990 14589 88840 100061 8219 41614 9331 2697 485 34563 836 5638 18461 3787 21368 5033 17075 26009 11300 1205
leaf_count=45180 48128 22879 13718 107984 5078 25537 18141 13937 17490 9827 20990 14589 88840 100061 8219 41614 9331 2697 485 34563 836 5638 18461 3787 21368 5033 17075 26009 11300 1205
internal_value=0 -0.000997843 0.00313516 0.000245286 0.0057186 0.00193324 0.00642431 0.00764373 0.00129731 0.00921035 0.00303203 -0.00113725 -0.00242247 -0.00172092 0.00077764 0.00124881 0.00479236 0.00476509 0.00771111 -0.000363462 0.00543621 0.000575305 0.00114235 0.00801127 0.0024865 0.00802669 0.00580972 0.00273661 0.00717102 0.00423733
internal_weight=0 576511 183489 307867 76273 138622 71195 57477 107216 43540 59088 169245 268644 179804 98721 90502 39901 38098 33713 79743 35401 61261 55623 33228 37162 14364 34565 48888 29441 22573
internal_count=760000 576511 183489 307867 76273 138622 71195 57477 107216 43540 59088 169245 268644 179804 98721 90502 39901 38098 33713 79743 35401 61261 55623 33228 37162 14364 34565 48888 29441 22573
is_linear=0
shrinkage=0.1


Tree=18
num_leaves=31
num_cat=0
split_feature=2 5 15 29 13 29 5 3 5 18 23 5 33 33 1 33 24 1 33 2 2 29 5 5 25 4 13 18 3 13
split_gain=195.131 77.0396 69.6767 60.2319 58.6161 37.6195 37.2575 31.9052 31.884 31.802 31.2249 27.9686 25.6696 22.8004 22.3017 22.4923 21.5432 20.0459 19.5026 19.4769 19.3344 18.2141 16.9934 21.1382 16.1908 15.713 14.6838 13.8798 12.2866 12.2201
threshold=15.893000000000002 1.0000000180025095e-35 707.04545455000004 1.0000000180025095e-35 17.445000000000004 1.0000000180025095e-35 1.0000000180025095e-35 169.76500000000001 1.5000000000000002 25754.500000000004 7.5000000000000009 4.5000000000000009 4033.0000000000005 2786.5000000000005 4.0000000000000009 3211.5000000000005 1.0000000180025095e-35 4.0000000000000009 3151.5000000000005 22.760000000000002 7.2660000000000009 1.0000000180025095e-35 1.5000000000000002 3.5000000000000004 3.5000000000000004 4.5000000000000009 12.642727275000002 18438.500000000004 309.72500000000008 25.325000000000003
decision_type=2 2 2 2 10 2 2 2 2 2 10 2 2 2 2 2 8 2 2 2 2 2 2 2 10 2 8 2 2 10
left_child=2 5 3 4 17 7 14 -2 -3 10 19 12 13 -10 15 27 24 18 -1 26 -4 25 -8 -24 -17 -15 -9 -6 -20 -11
right_child=1 8 20 -5 6 -7 22 9 11 29 -12 -13 -14 21 -16 16 -18 -19 28 -21 -22 -23 23 -25 -26 -27 -28 -29 -30 -31
leaf_value=-0.0022645267021867551 -0.0010392617001509759 -0.0012098460884489525 -0.0041299349646810408 -0.0042129082059434147 0.0025484699387073387 -0.0031086792125311637 -0.0012498641702672311 0.0016144757125036294 0.00078131445984806107 -0.0012104330357745894 0.010723178753824081 -0.004276569442353652 -0.014576840531220311 0.0050322204093969274 0.0073507504028385868 0.011927712182736808 0.018320145725889445 0.0017721395188862112 -0.0014934961515934342 0.0096024718701973617 -0.00187393761111943 -0.0039085762875131621 0.0029179977217025296 -0.0016920827652972077 0.0032645046635330329 0.012474008724208951 0.0057490825108148296 -0.0011665045641701813 0.0015880969438020098 0.0048239347961976514
leaf_weight=98490 7429 44721 51719 33007 31856 5741 41497 11608 19086 7774 14920 5633 802 23601 11275 2554 1232 22345 24547 9774 143093 2025 32909 14254 13889 3225 33033 14697 27359 5905
leaf_count=98490 7429 44721 51719 33007 31856 5741 41497 11608 19086 7774 14920 5633 802 23601 11275 2554 1232 22345 24547 9774 143093 2025 32909 14254 13889 3225 33033 14697 27359 5905
internal_value=0 0.00272489 -0.000942246 -0.000136153 0.000263253 0.00474094 0.00161631 0.0052392 0.000768019 0.00580107 0.00667044 0.00239481 0.00316586 0.0034627 0.0032488 0.00252872 0.00556574 -0.00102261 -0.00143784 0.00555922 -0.00247286 0.00523653 0.000226075 0.0015247 0.00461011 0.00592687 0.00467396 0.00137564 0.000130773 0.0013945
internal_weight=0 195277 564723 369911 336904 96184 164163 90443 99093 83014 69335 54372 48739 47937 75503 64228 17675 172741 150396 54415 194812 28851 88660 47163 16443 26826 44641 46553 51906 13679
internal_count=760000 195277 564723 369911 336904 96184 164163 90443 99093 83014 69335 54372 48739 47937 75503 64228 17675 172741 150396 54415 194812 28851 88660 47163 16443 26826 44641 46553 51906 13679
is_linear=0
shrinkage=0.1


Tree=19
num_leaves=31
num_cat=0
split_feature=1 8 15 33 8 24 9 29 13 13 29 3 23 13 15 13 5 15 33 5 13 13 18 23 28 13 33 33 24 5
split_gain=167.975 79.5113 69.1097 56.8126 44.6631 41.058 34.0614 30.2449 28.8191 28.5176 28.2459 26.6178 21.8046 21.101 20.2093 19.0445 18.2919 16.3697 15.2883 14.5207 13.0541 12.5719 12.4382 11.8455 11.7679 11.6308 11.1229 14.9792 13.5761 10.7524
threshold=4.0000000000000009 1.0000000180025095e-35 673.86363635000009 3211.5000000000005 1.0000000180025095e-35 inf 1.0000000180025095e-35 1.0000000180025095e-35 24.325000000000003 21.215000000000003 1.0000000180025095e-35 156.44500000000002 8.5000000000000018 28.852272725000002 680.90909090000014 25.195000000000004 1.0000000180025095e-35 683.40909090000014 4033.0000000000005 1.0000000180025095e-35 24.075000000000003 14.003636365000002 18089.500000000004 7.5000000000000009 1.0000000180025095e-35 12.740909090000001 3941.5000000000005 3181.5000000000005 inf 1.5000000000000002
decision_type=2 2 2 2 2 8 2 2 10 8 2 2 10 10 2 8 2 2 2 2 10 8 2 10 2 10 2 2 8 2
left_child=1 15 7 9 12 6 23 8 25 19 11 -8 18 16 24 26 -6 20 21 -3 -13 -4 -23 -5 -11 -2 27 -1 -29 -18
right_child=2 3 4 5 13 -7 10 -9 -10 14 -12 17 -14 -15 -16 -17 29 -19 -20 -21 -22 22 -24 -25 -26 -27 -28 28 -30 -31
leaf_value=-0.0029801003352310645 0.0023292916828088826 -0.00031732338121498606 -0.0024657950639357705 -0.0021508635514785137 0.0049073737415696473 0.012933653182712635 -0.00090170542752077132 -0.0033031102514295783 0.010899241601182328 0.0032545246112974688 -0.0039478039693189079 0.0052275033155435848 0.0037551130581749297 0.0082790631538209244 -0.00063243111995119462 -0.00041836143973185544 -0.0014347459274834679 0.0029043008119616753 -0.012655123861911814 -0.0023576081631693506 0.010615940634952054 0.0019193191826358065 -0.0013704974079720056 0.0037170923362144907 -0.0034793847814339504 0.0064482615044153483 -0.0070330962902445966 -0.0014669496754890177 0.0055459570958022852 0.0028604396118505583
leaf_weight=142925 10217 62022 21802 21295 22659 3504 10244 3258 11796 32026 5202 18312 13276 8580 37667 54056 10598 24992 1048 79717 5959 25642 20827 4103 2824 20836 5322 63455 2886 12950
leaf_count=142925 10217 62022 21802 21295 22659 3504 10244 3258 11796 32026 5202 18312 13276 8580 37667 54056 10598 24992 1048 79717 5959 25642 20827 4103 2824 20836 5322 63455 2886 12950
internal_value=0 -0.000838719 0.0026352 0.000258308 0.0015109 0.00231346 0.00190047 0.00598521 0.00669145 -0.000639612 0.00311853 0.00373626 4.24103e-05 0.00372475 0.000973314 -0.00209592 0.00287908 0.0047007 -0.000668648 -0.00146482 0.00655047 -0.000484648 0.000444852 -0.00120291 0.00270886 0.00509305 -0.0025185 -0.00240369 -0.00116187 0.000927351
internal_weight=0 576511 183489 307867 137382 93611 90107 46107 42849 214256 64709 59507 82595 54787 72517 268644 46207 49263 69319 141739 24271 68271 46469 25398 34850 31053 214588 209266 66341 23548
internal_count=760000 576511 183489 307867 137382 93611 90107 46107 42849 214256 64709 59507 82595 54787 72517 268644 46207 49263 69319 141739 24271 68271 46469 25398 34850 31053 214588 209266 66341 23548
is_linear=0
shrinkage=0.1


Tree=20
num_leaves=31
num_cat=0
split_feature=2 5 23 33 33 33 29 33 5 23 29 2 8 5 18 3 18 3 29 0 8 18 13 30 1 33 5 13 1 0
split_gain=139.707 87.7664 45.0884 43.6381 39.6408 38.1901 35.8086 29.9889 28.3682 25.1709 23.3751 21.8981 21.7144 21.2297 20.676 20.5087 22.8685 19.8991 20.7146 18.3277 17.4749 15.3718 15.3676 14.223 13.7153 12.7818 12.196 12.0644 11.9267 11.6047
threshold=13.661000000000003 1.0000000180025095e-35 6.5000000000000009 2664.0000000000005 2633.5000000000005 4002.5000000000005 1.0000000180025095e-35 3972.0000000000005 1.5000000000000002 7.5000000000000009 1.0000000180025095e-35 7.2660000000000009 1.0000000180025095e-35 4.5000000000000009 36210.000000000007 169.76500000000001 12330.500000000002 216.11500000000004 1.0000000180025095e-35 15887.500000000002 1.0000000180025095e-35 25754.500000000004 23.835000000000004 1.0000000180025095e-35 4.0000000000000009 3211.5000000000005 1.0000000180025095e-35 14.300909090000003 4.0000000000000009 8626.1363635000016
decision_type=2 2 10 2 2 2 2 2 2 10 2 2 2 2 2 2 2 2 2 2 2 2 8 2 2 2 2 10 2 2
left_child=2 3 11 21 -3 6 9 8 -6 15 12 -1 24 17 -11 -5 19 -10 22 -17 -13 27 -19 26 -4 28 -22 -2 -14 -29
right_child=1 4 10 5 7 -7 -8 -9 13 14 -12 20 25 -15 -16 16 -18 18 -20 -21 23 -23 -24 -25 -26 -27 -28 29 -30 -31
leaf_value=-0.0036010383848003261 -0.00055314036072677997 -0.0021215107253216218 -0.00092397514604416987 -0.0008102624457783608 -0.00038645538023733864 -0.0083547542849658867 -0.0027332294771608657 -0.0077088248369819746 -0.00093299847002730526 0.0093699957429398423 -0.0038782605126356827 -0.0022341585927800902 0.00097212200373807491 -0.0027288751772545478 0.0014219096653601705 0.004759899510132652 0.0023123202573807991 0.003550272950259187 -0.0033816242023370271 0.0092172890438284149 0.00079882263403483692 -0.0030909975298634273 0.0076013046248097349 -0.0038216932745068891 0.0033410477847198592 0.0051831155838415379 -0.0011736931102172016 -0.00043826409982575688 0.0076548917622743648 0.0042076477691117787
leaf_weight=54024 15426 57437 51775 7006 46503 2255 5928 3704 8170 20089 11022 128925 31734 5926 3910 26721 22230 25097 3133 14088 56175 8021 14938 12620 8825 13282 70918 7377 2916 19825
leaf_count=54024 15426 57437 51775 7006 46503 2255 5928 3704 8170 20089 11022 128925 31734 5926 3910 26721 22230 25097 3133 14088 56175 8021 14938 12620 8825 13282 70918 7377 2916 19825
internal_value=0 0.00159939 -0.00114935 0.00332542 -7.10002e-07 0.00451465 0.00480494 0.00113273 0.00144834 0.0052801 0.000509501 -0.00176399 0.000955101 0.00293834 0.00807507 0.00432249 0.00489293 0.00359251 0.00444901 0.00629867 -0.00139456 0.00092515 0.00506181 -0.000619784 -0.000302872 0.00254555 -0.000301843 0.00168084 0.00153452 0.00294771
internal_weight=0 317784 442216 152876 164908 102227 99972 107471 103767 94044 119554 322662 108532 57264 23999 70045 63039 51338 43168 40809 268638 50649 40035 139713 60600 47932 127093 42628 34650 27202
internal_count=760000 317784 442216 152876 164908 102227 99972 107471 103767 94044 119554 322662 108532 57264 23999 70045 63039 51338 43168 40809 268638 50649 40035 139713 60600 47932 127093 42628 34650 27202
is_linear=0
shrinkage=0.1


Tree=21
num_leaves=31
num_cat=0
split_feature=4 5 23 29 18 5 5 29 3 13 9 8 23 8 23 33 33 33 8 33 1 25 29 18 13 15 29 15 33 0
split_gain=124.717 75.8097 49.7633 39.1925 38.8836 29.6655 37.5793 28.3494 27.9642 27.6761 26.643 26.2982 24.7473 19.7579 18.2759 15.8242 15.5224 18.6142 13.8037 14.0815 13.7763 13.6272 13.4659 13.2295 13.0683 11.6671 15.7961 11.385 10.9939 10.3321
threshold=3.5000000000000004 1.0000000180025095e-35 4.5000000000000009 1.0000000180025095e-35 18438.500000000004 1.5000000000000002 3.5000000000000004 1.0000000180025095e-35 169.76500000000001 15.584545455000002 1.0000000180025095e-35 1.0000000180025095e-35 4.5000000000000009 1.0000000180025095e-35 10.500000000000002 3090.0000000000005 2786.5000000000005 3760.0000000000005 1.5000000000000002 2786.5000000000005 4.0000000000000009 1.5000000000000002 1.0000000180025095e-35 21769.500000000004 25.325000000000003 637.27272730000016 52.500000000000007 665.90909090000014 3211.5000000000005 15412.500000000002
decision_type=2 2 8 2 2 2 2 2 2 8 2 2 10 2 10 2 2 2 2 2 2 10 2 2 10 2 2 2 2 2
left_child=1 2 10 4 9 25 12 8 -2 -4 -1 23 -7 -14 -6 -12 -11 20 19 -13 28 -17 27 24 -10 26 -3 -15 -18 -23
right_child=7 5 3 -5 14 6 -8 -9 11 16 15 18 13 22 -16 21 17 -19 -20 -21 -22 29 -24 -25 -26 -27 -28 -29 -30 -31
leaf_value=-0.0029162572656854114 -0.002972315087552818 0.025584650721231644 0.0014191922613630821 -0.0031969805749966795 -0.00065354863137354275 -0.0010627758109714293 -0.0025920351434672653 -0.0034732583424697192 0.0026586356926423145 0.0026680389653292213 -0.0011082499084509871 0.0048848853143384384 7.3434896926510374e-05 0.0075093925348019216 0.0035634692393658029 0.007221436456761314 0.0040430739673754535 -0.0012677394322708213 0.0028983693733557708 0.0095426555671589419 0.010734353530290045 -0.00012961826253811765 -0.0030511878600386257 -0.00030220669316435985 0.0081794308571434774 -0.0023628171578191914 -0.0016416717279288504 0.002954711464332533 0.0079209201620580923 0.0034535326286355842
leaf_weight=40201 4862 352 42367 14462 48712 63103 61136 4957 15876 23218 43758 10402 38555 7028 13025 3939 17476 3304 7284 17262 6526 24818 3002 9631 5874 178806 540 25046 12569 11909
leaf_count=40201 4862 352 42367 14462 48712 63103 61136 4957 15876 23218 43758 10402 38555 7028 13025 3939 17476 3304 7284 17262 6526 24818 3002 9631 5874 178806 540 25046 12569 11909
internal_value=0 -0.000427469 0.000741537 0.0017973 0.00222929 -0.00137577 -0.000531054 0.00383891 0.00434805 0.00339609 -0.00079739 0.00488464 0.000390444 0.00163588 0.000236139 0.000211571 0.00472358 0.00592047 0.00677148 0.00779128 0.00656988 0.00163174 0.00335329 0.00278334 0.00414963 -0.00230591 0.00910235 0.00395273 0.00566533 0.00103224
internal_weight=0 683852 306284 181659 167197 377568 197870 76148 71191 105460 124625 66329 136734 73631 61737 84424 63093 39875 34948 27664 36571 40666 35076 31381 21750 179698 892 32074 30045 36727
internal_count=760000 683852 306284 181659 167197 377568 197870 76148 71191 105460 124625 66329 136734 73631 61737 84424 63093 39875 34948 27664 36571 40666 35076 31381 21750 179698 892 32074 30045 36727
is_linear=0
shrinkage=0.1


Tree=22
num_leaves=31
num_cat=0
split_feature=1 15 15 13 33 13 33 13 24 33 8 33 33 24 29 18 25 18 5 13 5 8 29 8 33 3 11 30 29 33
split_gain=108.897 59.368 49.5159 40.2774 27.9602 27.4371 23.8879 23.9941 22.6297 25.298 19.1292 18.8616 18.7928 16.6493 16.0775 15.4212 15.0938 13.7772 13.307 12.4969 12.2857 11.9238 11.5942 11.226 11.2078 11.9529 10.899 10.5665 10.0942 9.68294
threshold=4.0000000000000009 683.40909090000014 680.90909090000014 15.584545455000002 3181.5000000000005 26.833181820000004 4033.0000000000005 24.814090910000001 inf 3760.0000000000005 1.0000000180025095e-35 3211.5000000000005 4002.5000000000005 1.0000000180025095e-35 1.0000000180025095e-35 17234.500000000004 2.5000000000000004 16022.500000000002 1.0000000180025095e-35 20.323636365000002 1.0000000180025095e-35 1.5000000000000002 1.0000000180025095e-35 1.0000000180025095e-35 3090.0000000000005 323.01500000000004 418.50000000000006 1.0000000180025095e-35 1.0000000180025095e-35 2480.5000000000005
decision_type=2 2 2 10 2 10 2 10 8 2 2 2 2 8 2 2 10 2 2 10 2 2 2 2 2 2 2 2 2 2
left_child=1 3 5 24 18 10 7 15 9 14 26 17 13 16 23 20 -13 -3 -5 -18 -4 22 -12 -6 -1 -26 -2 29 -7 -9
right_child=2 11 6 4 8 28 -8 27 -10 -11 21 12 -14 -15 -16 -17 19 -19 -20 -21 -22 -23 -24 -25 25 -27 -28 -29 -30 -31
leaf_value=-0.0018443169950253611 0.00051962142746660004 -0.0014690035492031964 0.0028694154849424336 0.0018879645294870625 0.0024480788082950639 0.008634861702685832 -0.010933367850577453 -0.00048779705958776906 0.01163382389927451 -0.0031232204194764305 0.0067980139406492272 0.0025049658128353867 -0.0059749652723032742 0.0073644866855470843 -0.0031056169873005207 -0.0016537688672839928 -0.0019568432069070247 -0.0030865055478398896 -0.00050460094288945273 0.00058415849357067228 -0.00031500646660031215 0.00092094734359461628 -0.0027887272833774551 0.0060313596655831459 -0.0013363666417892223 0.0020406168374449596 0.004807892105395388 -0.003712754351733339 -0.0027388177922461746 0.0048544811114807091
leaf_weight=62054 24933 144173 22996 43043 15261 13824 1717 4019 3242 5893 20102 15652 5778 2895 3013 31320 46201 82960 50543 33309 25606 5354 1346 20471 22025 19998 7775 1896 827 21774
leaf_count=62054 24933 144173 22996 43043 15261 13824 1717 4019 3242 5893 20102 15652 5778 2895 3013 31320 46201 82960 50543 33309 25606 5354 1346 20471 22025 19998 7775 1896 827 21774
internal_value=0 -0.000675309 0.00212178 0.000502844 0.00160139 0.00411633 0.000768806 0.000955521 0.00356689 0.002981 0.00316195 -0.00154937 -0.000432858 -0.00010629 0.00390943 7.6612e-05 -0.000333564 -0.00205979 0.000595811 -0.000892345 0.0011917 0.00514256 0.00619638 0.00450095 -0.000990348 0.00027068 0.00153898 0.00349242 0.00799286 0.00402206
internal_weight=0 576511 183489 245543 141466 74161 109328 107611 47880 44638 59510 330968 103835 98057 38745 79922 95162 227133 93586 79510 48602 26802 21448 35732 104077 42023 32708 27689 14651 25793
internal_count=760000 576511 183489 245543 141466 74161 109328 107611 47880 44638 59510 330968 103835 98057 38745 79922 95162 227133 93586 79510 48602 26802 21448 35732 104077 42023 32708 27689 14651 25793
is_linear=0
shrinkage=0.1


Tree=23
num_leaves=31
num_cat=0
split_feature=2 23 18 30 1 9 5 3 33 29 33 18 8 0 33 33 5 23 23 13 18 33 31 16 24 33 5 5 13 23
split_gain=90.9923 64.8998 47.0447 38.7178 33.7996 26.9413 23.5046 23.0254 22.8673 21.984 22.3645 20.6748 20.281 17.5364 16.239 15.3051 15.1123 14.2567 14.0266 11.3032 10.142 9.87508 9.61464 9.52518 9.52389 9.1567 8.70801 10.9467 8.64609 8.59665
threshold=19.98 5.5000000000000009 21769.500000000004 1.0000000180025095e-35 4.0000000000000009 1.0000000180025095e-35 1.0000000180025095e-35 169.76500000000001 2998.5000000000005 1.0000000180025095e-35 4125.0000000000009 17234.500000000004 1.0000000180025095e-35 15187.500000000002 3760.0000000000005 3090.0000000000005 1.0000000180025095e-35 8.5000000000000018 11.500000000000002 28.195000000000004 47747.500000000007 2480.5000000000005 2017.5000000000002 689.19696970000007 inf 3882.5000000000005 1.5000000000000002 4.5000000000000009 14.595000000000001 3.5000000000000004
decision_type=2 10 2 2 2 2 2 2 2 2 2 2 2 2 2 2 2 10 10 10 2 2 2 2 8 2 2 2 10 8
left_child=1 5 3 4 8 24 11 -2 28 10 12 13 20 29 16 -15 23 -6 -4 -14 22 -19 -9 -10 -1 -23 -8 -28 -3 -7
right_child=7 2 18 -5 17 6 26 9 14 -11 -12 -13 19 15 -16 -17 -18 21 -20 -21 -22 25 -24 -25 -26 -27 27 -29 -30 -31
leaf_value=-0.0026186194638615611 -0.0030661535443765905 -0.0013352202008553088 -0.0015550121785897089 -0.003080140312133715 0.0038410284938209284 -0.00087038448338055345 -0.0021972473747139325 0.003529083340223864 0.0066432247037082563 -0.0030889264063780151 -0.02374887652695179 -0.0021091983940293981 0.0052875119047258003 0.0013311181438155305 -0.0017348591439678878 0.0061508394798933516 0.0019095674962380576 0.00050888700720686214 0.0014581006335649697 0.0097887776346129371 -0.0050986548467653056 0.010590392362596655 -0.0051670655914212993 0.0028543590903013557 -0.00025764357106279818 -0.008539024239916598 -0.00025116647716555006 -0.0038734853565902463 0.0010522612107206444 0.0013310239742440112
leaf_weight=118399 5025 22528 76776 14973 22073 33980 72121 25180 16507 4137 280 25050 24563 16519 6834 10960 31267 1298 19342 7218 1604 7388 1339 11095 19967 259 70307 9466 46431 37114
leaf_count=118399 5025 22528 76776 14973 22073 33980 72121 25180 16507 4137 280 25050 24563 16519 6834 10960 31267 1298 19342 7218 1604 7388 1339 11095 19967 259 70307 9466 46431 37114
internal_value=0 -0.000346718 0.000838696 0.00178968 0.00222978 -0.00113943 -0.000567669 0.00345315 0.00154429 0.00396246 0.00444717 0.000456149 0.00457896 0.00110807 0.00287931 0.00325346 0.00341496 0.00520581 -0.000948678 0.00630983 0.00262296 0.00857359 0.00309 0.00512024 -0.00227792 0.00994249 -0.00140093 -0.000680997 0.000272302 0.000278842
internal_weight=0 690654 276771 180653 165680 413883 275517 69346 134662 64321 60184 123623 59904 98573 65703 27479 58869 31018 96118 31781 28123 8945 26519 27602 138366 7647 151894 79773 68959 71094
internal_count=760000 690654 276771 180653 165680 413883 275517 69346 134662 64321 60184 123623 59904 98573 65703 27479 58869 31018 96118 31781 28123 8945 26519 27602 138366 7647 151894 79773 68959 71094
is_linear=0
shrinkage=0.1


Tree=24
num_leaves=31
num_cat=0
split_feature=13 15 2 5 30 1 18 3 1 33 25 33 3 24 31 33 33 0 5 5 25 18 33 8 33 23 18 33 18 2
split_gain=83.2177 43.1164 35.0822 34.3246 27.6655 25.9693 21.2416 20.77 19.2987 19.1424 16.9792 15.9083 14.707 14.1773 13.8788 13.4555 13.2766 13.1786 12.6893 15.5078 12.638 11.5509 10.9589 10.6456 10.516 10.4695 10.4553 10.1546 10.1028 9.88687
threshold=21.950909090000003 683.40909090000014 11.450000000000001 1.0000000180025095e-35 1.0000000180025095e-35 4.0000000000000009 25754.500000000004 160.58000000000001 4.0000000000000009 3211.5000000000005 2.5000000000000004 4002.5000000000005 162.49500000000003 inf 2017.5000000000002 2480.5000000000005 3760.0000000000005 15612.500000000002 1.5000000000000002 3.5000000000000004 8.5000000000000018 18824.500000000004 3456.0000000000005 1.0000000180025095e-35 3211.5000000000005 4.5000000000000009 12553.500000000002 3181.5000000000005 12225.500000000002 6.6950000000000012
decision_type=10 2 2 2 2 2 2 2 2 2 8 2 2 8 2 2 2 2 2 2 8 2 2 2 2 10 2 2 2 2
left_child=2 4 29 6 5 9 7 -4 27 23 24 15 -5 16 28 -12 -11 22 -14 21 -7 25 -17 -2 -9 -20 -19 -3 -10 -1
right_child=1 8 3 12 -6 20 -8 10 14 13 11 -13 18 -15 -16 17 -18 26 19 -21 -22 -23 -24 -25 -26 -27 -28 -29 -30 -31
leaf_value=-0.0032117073545213054 -0.00036319376645827477 -0.0011187184507445087 -0.0022375316242947644 -0.0038077857507902158 -0.0026700496556854433 0.0088046318272606196 -0.002285064148847642 0.0029768993634218949 0.0051839451561910659 0.0053751373003931464 -0.00058931477323545143 -0.010435561894397018 -0.0016995430931544819 0.014042904388055714 -0.0057953410083828281 0.0019490923604016993 -0.0019368603972687419 0.0057259083937113257 0.00042391897723716295 -0.0019965358325029089 0.0043174430320501046 -0.0015803341486637279 -0.0022043131400374333 0.0026482855861418709 0.0075619725238297523 0.0035909740700953404 0.0017917902283660994 0.00095003652446289707 0.0016122320917116859 -0.0013957602801255577
leaf_weight=36075 19513 63879 12861 16941 7780 11067 16197 16055 11299 16864 22352 1127 67136 1615 2036 28548 2912 14784 22510 23018 14501 12409 8171 29462 7266 19463 12439 37748 26476 177496
leaf_count=36075 19513 63879 12861 16941 7780 11067 16197 16055 11299 16864 22352 1127 67136 1615 2036 28548 2912 14784 22510 23018 14501 12409 8171 29462 7266 19463 12439 37748 26476 177496
internal_value=0 0.00151643 -0.00072207 -2.70584e-05 0.00306513 0.00353024 0.00112009 0.00156631 0.000380795 0.00253847 0.00200807 0.00136853 -0.00102022 0.00503415 0.00224711 0.00152269 0.00429845 0.00226097 -0.000693485 0.000179159 0.0062597 0.00110005 0.00102484 0.00144843 0.00440545 0.00189249 0.00392829 -0.000350307 0.00268058 -0.0017025
internal_weight=0 245152 514848 301277 103714 95934 139800 123603 141438 70366 110742 87421 161477 21391 39811 86294 19776 63942 144536 77400 25568 54382 36719 48975 23321 41973 27223 101627 37775 213571
internal_count=760000 245152 514848 301277 103714 95934 139800 123603 141438 70366 110742 87421 161477 21391 39811 86294 19776 63942 144536 77400 25568 54382 36719 48975 23321 41973 27223 101627 37775 213571
is_linear=0
shrinkage=0.1


Tree=25
num_leaves=31
num_cat=0
split_feature=13 8 1 30 15 1 23 33 8 33 1 33 1 11 33 33 9 23 18 33 29 24 33 25 29 3 18 13 0 0
split_gain=69.9808 39.5173 32.2061 32.0219 30.3409 18.2361 17.4107 15.5187 15.2663 16.1925 14.815 14.1703 13.846 13.759 13.1494 12.2807 11.1121 10.817 10.8407 10.5975 10.8218 10.019 9.86633 9.72002 8.3893 8.30384 8.27476 7.86671 7.57778 7.54484
threshold=24.439545455000005 1.0000000180025095e-35 4.0000000000000009 1.0000000180025095e-35 671.36363635000009 4.0000000000000009 4.5000000000000009 3941.5000000000005 1.5000000000000002 2786.5000000000005 4.0000000000000009 3181.5000000000005 4.0000000000000009 369.50000000000006 3211.5000000000005 3972.0000000000005 1.5000000000000002 9.5000000000000018 13445.500000000002 4063.5000000000005 1.0000000180025095e-35 1.0000000180025095e-35 3760.0000000000005 3.5000000000000004 1.0000000180025095e-35 669.21000000000015 14668.500000000002 12.740909090000001 4512.5000000000009 6737.5000000000009
decision_type=10 2 2 2 2 2 10 2 2 2 2 2 2 2 2 2 2 10 2 2 2 8 2 10 2 2 2 8 2 2
left_child=1 7 6 4 12 11 29 10 9 -4 28 -6 16 27 26 21 -2 18 -7 20 23 -13 24 -11 -16 -19 -8 -12 -1 -3
right_child=3 2 8 -5 5 17 14 -9 -10 19 13 15 -14 -15 22 -17 -18 25 -20 -21 -22 -23 -24 -25 -26 -27 -28 -29 -30 -31
leaf_value=-0.0036345268737286345 0.001655450621949968 -0.0020281834388154018 0.0010025124212475775 -0.0028671284742403892 -0.00047085902891552396 0.0048081134916761652 0.00076920822491942148 -0.0058928998349676784 -0.00056458129915696838 0.0092678415893076693 -0.0026072700716203764 0.0022236763828760867 0.0073116033298230012 0.0020161614271683123 0.0037700314749669964 -0.0057901030497711755 0.0053821444175300099 0.0093553850171113808 0.00084120467978565758 -0.012086979666381914 -0.0027933041128712019 0.010587851166527136 -0.0013134200346598748 0.004591063908479541 -0.0028602770422088875 0.0011604603790158036 -0.0013789305476702496 -6.9072963124626498e-05 -0.0015028667433782826 -0.00043004617954726899
leaf_weight=18329 18195 46537 16804 14026 54235 11426 50423 7380 12642 6016 18406 29574 11659 22464 24027 1835 14281 4392 17349 357 1560 1505 5809 17007 2073 1721 27829 36278 184976 80885
leaf_count=18329 18195 46537 16804 14026 54235 11426 50423 7380 12642 6016 18406 29574 11659 22464 24027 1835 14281 4392 17349 357 1560 1505 5809 17007 2073 1721 27829 36278 184976 80885
internal_value=0 -0.000534956 0.000284746 0.00172126 0.00210855 0.00129595 -0.000217755 -0.00136644 0.0024799 0.00340191 -0.00124732 0.000522506 0.00435548 -6.74572e-05 0.000702926 0.00215935 0.00329423 0.00322797 0.00241639 0.00501856 0.00526697 0.00262871 0.00241385 0.00581312 0.00324342 0.00704826 5.25901e-06 -0.000923401 -0.00169505 -0.00101372
internal_weight=0 579802 291969 180198 166172 122037 237583 287833 54386 41744 280453 87149 44135 77148 110161 32914 32476 34888 28775 24940 24583 31079 31909 23023 26100 6113 78252 54684 203305 127422
internal_count=760000 579802 291969 180198 166172 122037 237583 287833 54386 41744 280453 87149 44135 77148 110161 32914 32476 34888 28775 24940 24583 31079 31909 23023 26100 6113 78252 54684 203305 127422
is_linear=0
shrinkage=0.1


Tree=26
num_leaves=31
num_cat=0
split_feature=15 13 29 1 8 33 33 33 24 23 18 33 33 0 18 33 5 9 18 3 18 9 15 5 25 7 2 13 29 23
split_gain=60.0015 58.9037 42.9549 41.0456 26.9996 22.1675 25.8509 22.0509 19.4844 14.1734 17.1935 13.4024 14.2564 14.0905 18.8984 12.5225 11.0198 10.2982 9.98598 12.319 9.14659 10.6309 9.12699 8.37623 8.29074 8.90053 8.15166 8.06619 7.7533 7.59337
threshold=704.77272725000012 14.863181820000001 1.0000000180025095e-35 4.0000000000000009 1.0000000180025095e-35 2480.5000000000005 3790.5000000000005 3181.5000000000005 inf 9.5000000000000018 17740.500000000004 4063.5000000000005 2725.0000000000005 14002.272725000001 12553.500000000002 3729.5000000000005 1.0000000180025095e-35 1.5000000000000002 2621.5000000000005 329.72500000000008 33494.500000000007 1.0000000180025095e-35 738.18181820000007 1.0000000180025095e-35 4.5000000000000009 5.5000000000000009 21.030000000000005 21.215000000000003 1.0000000180025095e-35 3.5000000000000004
decision_type=2 10 2 2 2 2 2 2 8 10 2 2 2 2 2 2 2 2 2 2 2 2 2 2 10 2 2 8 2 10
left_child=1 11 3 4 20 26 9 16 15 10 17 12 -1 29 28 24 -6 -7 19 -2 21 -3 27 -23 25 -9 -5 -20 -15 -14
right_child=18 2 -4 5 7 6 -8 8 -10 -11 -12 -13 13 14 -16 -17 -18 -19 22 -21 -22 23 -24 -25 -26 -27 -28 -29 -30 -31
leaf_value=-0.001909093187028584 -0.0011073699976457993 -0.0016238137888403528 -0.0024791153874656742 -0.0013484106910879722 0.0023766886761828637 0.0044209343367226355 -0.0037746037931870322 0.0036711171672212401 0.012932406188692989 0.0082907921885631754 0.0018014263864316105 -0.010945028602970221 -0.0022456180769147714 0.0040456297430737365 -0.00055976117026164819 -0.00066604122690218045 5.0119803214594512e-05 0.0082506832726926462 -0.0016168552237493452 0.0031068967864108076 -0.0025921816298982553 0.0022350775125870659 -0.0024577864042702856 -0.0001751904658795142 0.0031707241896483784 0.0097090281523863897 0.0037179828531473894 -0.00015125361840531205 -0.0031694645486008283 -0.00013574676489884981
leaf_weight=64827 18390 22538 25532 9980 37927 20423 3495 4911 2296 11138 17247 1290 27474 19578 25075 6197 43949 10700 99460 11137 13511 26736 66482 31296 21963 4855 4658 60331 1612 44992
leaf_count=64827 18390 22538 25532 9980 37927 20423 3495 4911 2296 11138 17247 1290 27474 19578 25075 6197 43949 10700 99460 11137 13511 26736 66482 31296 21963 4855 4658 60331 1612 44992
internal_value=0 0.000632882 0.00145521 0.00179708 0.00108876 0.0037693 0.00458376 0.00206976 0.00398713 0.00507466 0.0043341 -0.000787801 -0.000716418 -6.52187e-05 0.00129818 0.00344559 0.00112784 0.00573759 -0.00124746 0.000482168 -0.000184375 0.000219396 -0.00147316 0.000935247 0.00424863 0.00667276 0.000263781 -0.0010635 0.00349675 -0.000935661
internal_weight=0 504200 319352 293820 216179 77641 63003 122098 40222 59508 48370 184848 183558 118731 46265 37926 81876 31123 255800 29527 94081 80570 226273 58032 31729 9766 14638 159791 21190 72466
internal_count=760000 504200 319352 293820 216179 77641 63003 122098 40222 59508 48370 184848 183558 118731 46265 37926 81876 31123 255800 29527 94081 80570 226273 58032 31729 9766 14638 159791 21190 72466
is_linear=0
shrinkage=0.1


Tree=27
num_leaves=31
num_cat=0
split_feature=4 23 18 8 5 30 1 2 15 3 18 5 5 33 33 9 18 0 28 23 33 26 33 33 9 16 3 18 33 33
split_gain=54.2444 49.6823 34.8507 33.2837 23.5975 20.855 18.6255 14.8725 13.8987 13.4219 12.7351 12.7259 13.2825 12.6978 12.8632 10.5626 11.7153 11.3775 10.1447 10.4302 9.76166 9.24616 9.22624 9.4557 8.73411 8.25853 7.49064 7.33791 7.20789 7.61235
threshold=4.5000000000000009 7.5000000000000009 26116.000000000004 1.0000000180025095e-35 1.0000000180025095e-35 1.0000000180025095e-35 4.0000000000000009 12.400000000000002 676.13636365000013 102.06500000000001 13916.500000000002 1.5000000000000002 4.5000000000000009 3882.5000000000005 2451.0000000000005 1.0000000180025095e-35 16479.500000000004 15782.954545000002 1.0000000180025095e-35 3.5000000000000004 2786.5000000000005 8.5000000000000018 3211.5000000000005 3760.0000000000005 1.0000000180025095e-35 838.25000000000011 259.04500000000007 5081.5000000000009 3211.5000000000005 3364.5000000000005
decision_type=2 10 2 2 2 2 2 2 2 2 2 2 2 2 2 2 2 2 2 10 2 10 2 2 2 2 2 2 2 2
left_child=1 3 5 15 7 6 8 28 22 -9 18 -6 24 14 -8 -1 17 -17 19 21 -2 26 -3 -24 -13 -10 -11 -28 -5 -30
right_child=20 2 -4 4 11 -7 13 9 25 10 -12 12 -14 -15 -16 16 -18 -19 -20 -21 -22 -23 23 -25 -26 -27 27 -29 29 -31
leaf_value=-0.0022339764687207509 0.0022401308589679379 0.002607022237479687 -0.00069514394132233178 -0.0007534827307960157 -0.0015783667242976669 -0.0023426346909629667 0.00018141723185559065 -0.0033285294877874391 0.00078090431247833261 0.00047103249874336093 3.6577867737731305e-05 -0.00095602044119976869 -0.0032103612681511832 -0.0077769096026803711 0.0070053201163156956 -0.0010456471986812804 -0.0020014439081149082 0.00097729212481494597 -0.0020322023989666153 0.0047219899324102751 0.0064290479281658404 -0.00091323320947784127 0.0075459862518903915 -0.0014523242692641701 0.0013448896848014934 0.024856993773548337 0.0084182593573713712 0.0025053975688463358 0.0047799296225279168 0.00030409979196615184
leaf_weight=91808 9248 24375 50577 42596 77786 8145 3272 4368 38614 5385 17546 23935 10199 697 17736 81010 66081 42330 3554 29351 13962 7843 8227 1361 53092 143 3910 4531 5380 12938
leaf_count=91808 9248 24375 50577 42596 77786 8145 3272 4368 38614 5385 17546 23935 10199 697 17736 81010 66081 42330 3554 29351 13962 7843 8227 1361 53092 143 3910 4531 5380 12938
internal_value=0 -0.000149947 0.00145311 -0.000570586 0.000157649 0.00251241 0.0029312 0.00112569 0.0021639 0.00205414 0.00238014 -0.000648418 0.000180887 0.00550193 0.0059425 -0.00135368 -0.000927017 -0.000351379 0.00313362 0.00349346 0.00475998 0.0018294 0.00364074 0.00626869 0.000629916 0.000869737 0.00338521 0.00524433 -4.01367e-05 0.00161865
internal_weight=0 736790 153147 583643 302414 102570 94425 137402 72720 76488 72120 165012 87226 21705 21008 281229 189421 123340 54574 51020 23210 21669 33963 9588 77027 38757 13826 8441 60914 18318
internal_count=760000 736790 153147 583643 302414 102570 94425 137402 72720 76488 72120 165012 87226 21705 21008 281229 189421 123340 54574 51020 23210 21669 33963 9588 77027 38757 13826 8441 60914 18318
is_linear=0
shrinkage=0.1


Tree=28
num_leaves=31
num_cat=0
split_feature=5 2 5 5 23 33 15 21 29 33 24 18 23 33 15 29 33 13 26 33 2 33 18 33 24 3 13 23 33 5
split_gain=48.7995 35.3748 24.1123 30.4539 22.5559 19.8165 18.4054 16.5021 14.4035 15.2636 16.1249 14.1108 14.1652 13.8884 13.7833 15.663 12.2834 12.0695 11.3978 11.3458 10.7271 9.9921 9.71665 8.97628 9.40301 8.96913 9.9314 8.90856 8.70868 8.18737
threshold=1.0000000180025095e-35 14.340000000000002 1.5000000000000002 3.5000000000000004 3.5000000000000004 4094.5000000000005 665.90909090000014 4.5000000000000009 1.0000000180025095e-35 2816.0000000000005 inf 25754.500000000004 7.5000000000000009 4033.0000000000005 659.54545455000004 52.500000000000007 3760.0000000000005 23.955000000000002 8.5000000000000018 3211.5000000000005 22.370000000000005 3364.5000000000005 18266.500000000004 2816.0000000000005 1.5000000000000002 125.29000000000001 13.335000000000003 6.5000000000000009 2421.5000000000005 4.5000000000000009
decision_type=2 2 2 2 8 2 2 10 2 2 8 2 8 2 2 2 2 10 10 2 2 2 2 2 8 2 10 10 2 2
left_child=1 4 14 6 -1 7 17 11 9 -6 16 12 18 20 15 -2 22 -4 -3 -12 23 -20 27 -8 -25 -9 -27 -11 -28 -5
right_child=2 5 3 29 8 -7 13 25 -10 10 19 -13 -14 -15 -16 -17 -18 -19 21 -21 -22 -23 -24 24 -26 26 28 -29 -30 -31
leaf_value=-0.0016042508769018124 0.023442187995862354 0.0047119734842393929 0.0019187710610321373 -0.0009144457180998147 -0.0003528740226960372 -0.013535175353336355 -0.0009127393284332876 -0.0038125444666676036 -0.0024145980595831687 0.0017124245305688937 0.0031643781943622926 0.00021240386328142186 0.0061391365507101735 -0.0091451945428827428 -0.0016002592297607811 -0.00029866108039252004 -0.002528399978487333 0.0067842752061896064 0.0027698845101714726 0.01279576051755007 0.0049036943867472064 -0.00097263152862227687 0.00029623038450248457 0.00063585983386308439 0.0062806079335522976 -0.0013254532793236132 0.0005859182254154368 0.0045109350292299169 0.0043643263204409819 -0.0031915569374881265
leaf_weight=57604 469 20877 20780 41080 52538 798 45828 4141 13487 34593 2837 14827 16870 1552 195011 682 7060 6756 27178 2150 5015 9673 27190 68956 3083 11535 14058 16948 10776 25648
leaf_count=57604 469 20877 20780 41080 52538 798 45828 4141 13487 34593 2837 14827 16870 1552 195011 682 7060 6756 27178 2150 5015 9673 27190 68956 3083 11535 14058 16948 10776 25648
internal_value=0 0.000878525 -0.000730883 -8.8557e-06 8.79878e-05 0.00217504 0.000773085 0.00227152 0.000709658 0.00100367 0.00178878 0.00303003 0.00359005 0.000255389 -0.00153586 0.00937506 0.00146744 0.00311253 0.00284513 0.00731667 0.000374119 0.00178751 0.00182576 0.000181395 0.000877434 0.000597136 0.00109923 0.00263265 0.00222545 -0.00178969
internal_weight=0 345140 414860 218698 214407 130733 151970 129935 156803 143316 90778 89425 74598 124434 196162 1151 85791 27536 57728 4987 122882 36851 78731 117867 72039 40510 36369 51541 24834 66728
internal_count=760000 345140 414860 218698 214407 130733 151970 129935 156803 143316 90778 89425 74598 124434 196162 1151 85791 27536 57728 4987 122882 36851 78731 117867 72039 40510 36369 51541 24834 66728
is_linear=0
shrinkage=0.1


Tree=29
num_leaves=31
num_cat=0
split_feature=13 15 29 1 33 24 25 33 33 33 33 33 18 3 23 25 13 3 18 29 23 0 33 25 23 15 16 33 33 5
split_gain=44.9572 33.5686 26.8119 24.8882 20.9865 18.2268 16.9381 17.4799 16.55 15.2141 15.3909 12.3856 12.411 29.7793 10.8136 10.6421 10.3247 9.61778 9.63523 8.74364 8.59379 8.44343 8.41985 8.2813 7.73068 7.69313 7.39989 6.97127 6.79596 6.45873
threshold=17.061818180000003 702.27272725000012 1.0000000180025095e-35 4.0000000000000009 3211.5000000000005 inf 1.5000000000000002 3211.5000000000005 3729.5000000000005 3790.5000000000005 2786.5000000000005 4063.5000000000005 11637.115385000003 456.21500000000009 3.5000000000000004 3.5000000000000004 29.195000000000004 102.06500000000001 18634.500000000004 1.0000000180025095e-35 5.5000000000000009 28004.545455000003 3760.0000000000005 6.5000000000000009 5.5000000000000009 669.09090910000009 704.08333335000009 4063.5000000000005 3059.5000000000005 1.0000000180025095e-35
decision_type=10 2 2 2 2 8 8 2 2 2 2 2 2 2 8 10 10 2 2 2 10 2 2 10 10 2 2 2 2 2
left_child=6 2 3 4 17 8 7 -1 15 10 -5 12 13 14 -8 -6 25 -2 20 24 26 -9 29 -3 28 -12 -19 -10 -15 -16
right_child=1 23 -4 9 5 -7 11 21 27 -11 16 -13 -14 19 22 -17 -18 18 -20 -21 -22 -23 -24 -25 -26 -27 -28 -29 -30 -31
leaf_value=-0.000306267615036261 -0.0033419885317560408 0.00035101436403383278 -0.0020376954954384003 0.0016663942367115001 0.0067543615445658017 0.0096404340439497152 -0.0022405349602390603 0.00318040946290458 -0.00061877416643117342 -0.0036598540077684839 0.0066524674906563112 -0.00766264627965587 -0.0017851822348874506 0.00016133817423536254 0.00077298842061119611 0.002386396189129926 0.007504074671567957 0.00016933783947601462 -0.00082638958695917329 -0.0028874376195384744 0.0022536382311249643 0.012485613229112636 -0.0048880102303578022 -0.0012872114927451896 0.0050180940371662153 0.0028986884400171104 0.022489454142199269 -0.0097171083822942452 0.0030114599224038982 -0.0010496582242539652
leaf_weight=33485 6678 52797 21341 24463 6659 3536 59149 13347 8824 2993 7357 2826 124710 17716 34968 34356 10743 47719 35630 3738 37955 1052 4101 74254 7713 21170 149 931 15852 43788
leaf_count=33485 6678 52797 21341 24463 6659 3536 59149 13347 8824 2993 7357 2826 124710 17716 34968 34356 10743 47719 35630 3738 37955 1052 4101 74254 7713 21170 149 931 15852 43788
internal_value=0 0.000734371 0.00136412 0.00165549 0.00105106 0.00269853 -0.000805509 0.00094663 0.00221504 0.00330808 0.0036353 -0.00107223 -0.00101248 -0.000497241 -0.00120772 0.00309556 0.00486182 0.000352813 0.000555969 0.00174387 0.00112986 0.00386025 -0.000470429 -0.000606434 0.00216323 0.00386677 0.000238814 -0.0014871 0.00150727 -0.000240395
internal_weight=0 397555 270504 249163 182437 54306 362445 47884 50770 66726 63733 314561 311735 187025 142006 41015 39270 128131 121453 45019 85823 14399 82857 127051 41281 28527 47868 9755 33568 78756
internal_count=760000 397555 270504 249163 182437 54306 362445 47884 50770 66726 63733 314561 311735 187025 142006 41015 39270 128131 121453 45019 85823 14399 82857 127051 41281 28527 47868 9755 33568 78756
is_linear=0
shrinkage=0.1


Tree=30
num_leaves=31
num_cat=0
split_feature=8 23 8 1 33 2 9 5 33 18 23 29 33 13 3 18 3 33 25 13 7 26 33 18 3 15 29 25 33 33
split_gain=41.0726 34.4721 27.9617 28.3882 16.1311 15.6359 14.7098 14.9432 13.2258 12.5482 15.8474 10.1956 10.0516 9.58318 9.37438 15.123 11.5687 8.61467 8.04724 7.35229 7.75959 6.49315 6.44519 6.07563 7.86232 6.0258 10.9571 5.80974 5.8034 6.27884
threshold=1.0000000180025095e-35 4.5000000000000009 1.5000000000000002 4.0000000000000009 3211.5000000000005 21.995000000000001 1.0000000180025095e-35 1.0000000180025095e-35 2451.0000000000005 36210.000000000007 6.5000000000000009 1.0000000180025095e-35 4063.5000000000005 25.195000000000004 162.49500000000003 6153.5000000000009 475.70500000000004 4033.0000000000005 6.5000000000000009 14.863181820000001 7.5000000000000009 8.5000000000000018 2906.5000000000005 5729.5000000000009 266.84000000000009 641.59090910000009 52.500000000000007 7.5000000000000009 3941.5000000000005 2602.5000000000005
decision_type=2 10 2 2 2 2 2 2 2 2 10 2 2 10 2 2 2 2 10 10 2 10 2 2 2 2 2 10 2 2
left_child=6 5 3 4 19 14 -1 9 -5 10 23 17 13 27 -2 16 -16 18 -10 -3 -21 -7 -18 24 -8 26 -9 -6 29 -12
right_child=1 2 -4 8 12 21 7 25 11 -11 28 -13 -14 -15 15 -17 22 -19 -20 20 -22 -23 -24 -25 -26 -27 -28 -29 -30 -31
leaf_value=-0.0016809073520906448 -0.0020381976694157093 -0.00045513137629330674 -0.0005285323775099215 0.00018079932522400684 0.0038106154299001466 0.0060360525846510638 -0.00091114964054483992 0.022506149237354597 0.0084534101849074415 -0.0022167580470631955 0.00058588915468071618 -0.0019272813189558987 -0.0091697936731289856 0.0065646760990669259 0.00040774692306689089 -0.0009828824794448107 0.00070816101514273766 -0.011008218100661753 0.0048587769873184713 0.00055393382664028915 0.0029033457289537475 0.0006989573849425075 0.0056187890361398055 -0.00048937600236308501 0.0031874301579423005 -0.0010644113920223412 -0.0016405943925282104 0.00057168614386743268 -0.0072554656369896251 0.0038130313612476001
leaf_weight=115764 30888 28131 45365 4912 15868 5321 7713 306 11499 14791 8216 1597 619 8589 49725 85346 4115 284 13586 34402 23772 3988 7626 51997 11904 141466 487 8507 567 22649
leaf_count=115764 30888 28131 45365 4912 15868 5321 7713 306 11499 14791 8216 1597 619 8589 49725 85346 4115 284 13586 34402 23772 3988 7626 51997 11904 141466 487 8507 567 22649
internal_value=0 0.000727173 0.00164984 0.00230098 0.00159574 -0.000245429 -0.000743192 -0.000325832 0.00495329 0.000506993 0.000897954 0.00582262 0.00345526 0.00369234 -0.000454714 -0.000121563 0.00107439 0.00631049 0.00650656 0.000872156 0.00151399 0.00374963 0.00389771 7.63732e-05 0.00157595 -0.00101568 0.00767706 0.00268021 0.00276983 0.00295399
internal_weight=0 384140 197131 151766 119888 187009 375860 260096 31878 117837 103046 26966 33583 32964 177700 146812 61466 25369 25085 86305 58174 9309 11741 71614 19617 142259 793 24375 31432 30865
internal_count=760000 384140 197131 151766 119888 187009 375860 260096 31878 117837 103046 26966 33583 32964 177700 146812 61466 25369 25085 86305 58174 9309 11741 71614 19617 142259 793 24375 31432 30865
is_linear=0
shrinkage=0.1


Tree=31
num_leaves=31
num_cat=0
split_feature=13 15 0 9 33 18 18 0 29 33 28 8 25 8 33 1 23 11 33 25 15 2 24 33 23 33 5 18 13 15
